%YAML:1.0
my_svm: !!opencv-ml-svm
   svm_type: C_SVC
   kernel: { type:SIGMOID, gamma:9.8999999999999999e-04, coef0:0. }
   C: 1.
   term_criteria: { epsilon:1.1920928955078125e-07, iterations:1000 }
   var_all: 8
   var_count: 8
   class_count: 3
   class_labels: !!opencv-matrix
      rows: 1
      cols: 3
      dt: i
      data: [ 1, 2, 3 ]
   sv_total: 960
   support_vectors:
      - [ 9., 7., 4.77777767e+00, -3.44762001e+01, -2.51200008e+01,
          1.16666663e+00, 3.68777771e+02, 1.77861571e-01 ]
      - [ 40., 42., 4.37500000e+00, -1.15545998e+02, -1.22422997e+02,
          1.20000005e+00, 1.73074997e+02, 1.38991982e-01 ]
      - [ 28., 28., 4.85714293e+00, -8.11480026e+01, -7.60615005e+01,
          1.16666663e+00, 1.66035721e+02, 6.85233325e-02 ]
      - [ 42., 36., 4.42857122e+00, -1.12980003e+02, -1.05397003e+02,
          1.20000005e+00, 2.24023804e+02, 1.39245957e-01 ]
      - [ 13., 15., 4.30769253e+00, -5.06021996e+01, -6.16640015e+01,
          1.07142854e+00, 1.43307693e+02, 5.53267375e-02 ]
      - [ 30., 29., 4.53333330e+00, -6.98301010e+01, -8.71511993e+01,
          1.07407403e+00, 1.25833336e+02, 3.33996899e-02 ]
      - [ 15., 15., 5., -4.57443008e+01, -3.00032997e+01, 1.07142854e+00,
          2.11466660e+02, 1.40331730e-01 ]
      - [ 56., 49., 4.28571415e+00, -1.56005005e+02, -1.52453003e+02,
          1.28947365e+00, 2.09464279e+02, 6.52266964e-02 ]
      - [ 37., 31., 4.16216230e+00, -9.87026978e+01, -8.08968964e+01,
          1.06896555e+00, 2.12864868e+02, 6.42367080e-02 ]
      - [ 11., 8., 3.90909100e+00, -3.29734993e+01, -2.42064991e+01, 1.,
          2.32181824e+02, 1.92665949e-01 ]
      - [ 34., 30., 4.64705896e+00, -1.09985001e+02, -1.18200996e+02,
          1.07142854e+00, 187., 1.36883378e-01 ]
      - [ 17., 19., 3.41176462e+00, -4.82254982e+01, -6.30049019e+01,
          1.26666665e+00, 2.78882355e+02, 1.66399498e-02 ]
      - [ 34., 35., 4.20588255e+00, -8.95795975e+01, -9.68874969e+01,
          1.09375000e+00, 1.78058823e+02, 5.89894131e-02 ]
      - [ 8., 8., 2.75000000e+00, -2.47963009e+01, -2.55277004e+01, 1.,
          1.65750000e+02, 3.20444666e-02 ]
      - [ 6., 7., 5.33333349e+00, -1.41335001e+01, -1.37307997e+01, 1.,
          8.66666641e+01, 2.09333822e-01 ]
      - [ 12., 12., 5.16666651e+00, -3.70304985e+01, -3.73928986e+01,
          1.09090912e+00, 2.23833328e+02, 3.93815264e-02 ]
      - [ 15., 14., 4.33333349e+00, -4.85391006e+01, -4.96041985e+01, 1.,
          1.52266663e+02, 2.65802946e-02 ]
      - [ 25., 25., 3.35999990e+00, -7.88868027e+01, -7.58926010e+01,
          1.25000000e+00, 2.77119995e+02, 6.52266368e-02 ]
      - [ 40., 31., 3.65000010e+00, -1.04703003e+02, -9.46300964e+01,
          1.10714281e+00, 2.39100006e+02, 5.93813658e-02 ]
      - [ 16., 18., 3.43750000e+00, -5.06180992e+01, -6.19987984e+01,
          1.12500000e+00, 1.41875000e+02, 7.93857723e-02 ]
      - [ 3., 2., 5.66666651e+00, -8.63490963e+00, -1.46030998e+01, 1.,
          1.18333336e+02, 1.00167327e-01 ]
      - [ 19., 16., 3.26315784e+00, -6.10545006e+01, -5.33695984e+01, 1.,
          2.01368423e+02, 3.77151892e-02 ]
      - [ 34., 35., 4.23529434e+00, -9.38908005e+01, -9.62329025e+01,
          1.25000000e+00, 1.39558823e+02, 6.53143376e-02 ]
      - [ 8., 8., 3.50000000e+00, -1.30946999e+01, -1.90737000e+01, 1.,
          1.83250000e+02, 1.16620422e-03 ]
      - [ 4., 5., 6., -1.88486996e+01, -1.46777000e+01, 1., 147.,
          1.46951573e-02 ]
      - [ 22., 24., 4.18181801e+00, -5.19858017e+01, -6.56119003e+01,
          1.20000005e+00, 1.88909088e+02, 1.60237297e-01 ]
      - [ 21., 20., 3.19047618e+00, -5.80951996e+01, -6.33191986e+01,
          1.05263162e+00, 2.07142853e+02, 6.01219498e-02 ]
      - [ 34., 32., 3.58823538e+00, -1.11747002e+02, -9.66261978e+01,
          1.23076928e+00, 2.16470581e+02, 4.63455170e-02 ]
      - [ 11., 10., 3.72727275e+00, -2.49491005e+01, -3.63188019e+01, 1.,
          3.63727264e+02, 1.08551951e-02 ]
      - [ 30., 27., 4.19999981e+00, -8.38554001e+01, -8.91188965e+01,
          1.12500000e+00, 1.53066666e+02, 7.30440691e-02 ]
      - [ 7., 6., 2.14285707e+00, -2.98274994e+01, -2.86086998e+01,
          1.20000005e+00, 3.89571442e+02, 4.36477140e-02 ]
      - [ 47., 45., 4.19148922e+00, -1.54345001e+02, -1.47057999e+02,
          1.15384614e+00, 1.52148941e+02, 8.29022378e-02 ]
      - [ 40., 36., 4.27500010e+00, -9.52834015e+01, -1.13084000e+02,
          1.33333337e+00, 2.61274994e+02, 7.04606473e-02 ]
      - [ 49., 47., 4.34693861e+00, -1.48106003e+02, -1.30516006e+02,
          1.20512819e+00, 1.91061218e+02, 1.16115190e-01 ]
      - [ 24., 24., 4.04166651e+00, -8.19669037e+01, -8.25138016e+01,
          1.20000005e+00, 1.54791672e+02, 6.29996583e-02 ]
      - [ 17., 17., 3.58823538e+00, -5.23540001e+01, -5.13954010e+01,
          1.06250000e+00, 2.36588242e+02, 2.44204160e-02 ]
      - [ 6., 6., 3.66666675e+00, -2.51394005e+01, -2.27801991e+01, 1.,
          7.55000000e+01, 6.22625798e-02 ]
      - [ 13., 13., 3.84615374e+00, -4.22425995e+01, -3.09979000e+01,
          1.18181813e+00, 2.53461533e+02, 9.46761817e-02 ]
      - [ 21., 19., 3.80952382e+00, -6.38768005e+01, -6.04272995e+01,
          1.18750000e+00, 1.99666672e+02, 1.68370940e-02 ]
      - [ 33., 33., 3.54545450e+00, -8.68919983e+01, -8.05495987e+01,
          1.26923072e+00, 2.49484848e+02, 3.20466347e-02 ]
      - [ 37., 34., 3.83783793e+00, -8.99703979e+01, -7.88016968e+01,
          1.30769229e+00, 2.23945953e+02, 1.17835507e-01 ]
      - [ 37., 33., 4.16216230e+00, -1.21134003e+02, -1.15727997e+02,
          1.06451619e+00, 1.62729736e+02, 1.16312698e-01 ]
      - [ 53., 55., 4.24528313e+00, -1.67070007e+02, -1.80740997e+02,
          1.30952382e+00, 2.08735855e+02, 9.47896689e-02 ]
      - [ 28., 33., 4.39285707e+00, -7.35672989e+01, -9.20680008e+01,
          1.06451619e+00, 2.11142853e+02, 6.15171827e-02 ]
      - [ 17., 16., 4.11764717e+00, -5.53936005e+01, -4.59551010e+01, 1.,
          1.79176468e+02, 4.86792251e-02 ]
      - [ 50., 49., 4.46000004e+00, -1.56417007e+02, -1.56501007e+02,
          1.19512200e+00, 2.13259995e+02, 1.08075529e-01 ]
      - [ 44., 40., 3.70454550e+00, -1.42281006e+02, -1.19571999e+02,
          1.11111116e+00, 1.90386368e+02, 2.69155484e-02 ]
      - [ 20., 21., 4.50000000e+00, -6.73374023e+01, -7.12893982e+01,
          1.10526311e+00, 2.43550003e+02, 1.23418465e-01 ]
      - [ 36., 45., 3.94444442e+00, -9.68584976e+01, -1.09626999e+02,
          1.18421054e+00, 1.85722229e+02, 5.02778292e-02 ]
      - [ 25., 30., 4.19999981e+00, -8.46005020e+01, -9.58663025e+01,
          1.15384614e+00, 1.37160004e+02, 2.18500346e-02 ]
      - [ 27., 26., 4.40740728e+00, -7.43243027e+01, -8.27826996e+01,
          1.18181813e+00, 1.62962967e+02, 1.33685008e-01 ]
      - [ 39., 38., 4.58974361e+00, -1.12529999e+02, -9.43104019e+01,
          1.22580647e+00, 2.44205124e+02, 9.82454792e-02 ]
      - [ 38., 33., 3.84210515e+00, -9.35654984e+01, -9.13275986e+01,
          1.13793099e+00, 2.08236847e+02, 1.70660838e-02 ]
      - [ 38., 40., 4.26315784e+00, -1.29279007e+02, -1.10957001e+02,
          1.08108103e+00, 1.57868423e+02, 4.79884483e-02 ]
      - [ 7., 7., 5.42857122e+00, -2.54025002e+01, -2.55876007e+01, 1.,
          1.69714279e+02, 2.89889742e-02 ]
      - [ 23., 18., 4.04347849e+00, -5.53394012e+01, -5.21629982e+01,
          1.05882359e+00, 3.79304352e+02, 3.05581074e-02 ]
      - [ 20., 22., 4.44999981e+00, -9.29367981e+01, -7.19293976e+01,
          1.10000002e+00, 7.29499969e+01, 6.69087842e-02 ]
      - [ 16., 17., 4.50000000e+00, -5.65242004e+01, -5.77013016e+01,
          1.06250000e+00, 1.11062500e+02, 5.38036190e-02 ]
      - [ 24., 24., 4.37500000e+00, -6.09259987e+01, -7.52998962e+01,
          1.09090912e+00, 1.91875000e+02, 7.19597330e-03 ]
      - [ 25., 20., 4.92000008e+00, -8.59804993e+01, -5.72630997e+01, 1.,
          1.23680000e+02, 5.38151264e-02 ]
      - [ 14., 16., 5.28571415e+00, -3.88694992e+01, -3.59866982e+01, 1.,
          1.10857140e+02, 2.29164250e-02 ]
      - [ 24., 21., 4.04166651e+00, -8.25100021e+01, -5.91679001e+01,
          1.04999995e+00, 1.15208336e+02, 3.63118686e-02 ]
      - [ 18., 16., 3.77777767e+00, -5.42481003e+01, -4.34866982e+01,
          1.06666672e+00, 2.41777771e+02, 1.90778658e-01 ]
      - [ 25., 23., 5.36000013e+00, -8.94543991e+01, -8.23626022e+01,
          1.04545450e+00, 1.52600006e+02, 2.73797587e-02 ]
      - [ 8., 8., 3.87500000e+00, -2.33862991e+01, -2.27247009e+01, 1.,
          9.66250000e+01, 1.28212562e-02 ]
      - [ 30., 27., 4.83333349e+00, -7.67300034e+01, -8.25990982e+01,
          1.08000004e+00, 1.56433334e+02, 1.92427021e-02 ]
      - [ 25., 21., 4.28000021e+00, -7.12561035e+01, -6.46311035e+01,
          1.04999995e+00, 1.96720001e+02, 1.22776302e-02 ]
      - [ 19., 18., 3.78947377e+00, -5.21091003e+01, -5.45166016e+01,
          1.20000005e+00, 1.69421051e+02, 1.44336158e-02 ]
      - [ 37., 29., 3.89189196e+00, -9.47940979e+01, -9.22576981e+01,
          1.15999997e+00, 1.98621628e+02, 1.69916227e-02 ]
      - [ 38., 35., 4.42105246e+00, -7.58693008e+01, -8.54909973e+01,
          1.16666663e+00, 2.65026306e+02, 1.67700034e-02 ]
      - [ 31., 25., 5.38709688e+00, -7.13778992e+01, -6.78562012e+01,
          1.13636363e+00, 2.41161285e+02, 1.93551145e-02 ]
      - [ 34., 32., 4.94117641e+00, -9.84609985e+01, -1.04156998e+02,
          1.10344827e+00, 2.59794128e+02, 2.90438980e-02 ]
      - [ 34., 27., 4.76470566e+00, -6.73118973e+01, -7.66016998e+01,
          1.08000004e+00, 2.74882355e+02, 1.44890398e-02 ]
      - [ 24., 23., 4.91666651e+00, -5.89061012e+01, -5.59650993e+01,
          1.09523809e+00, 2.92458344e+02, 1.17817996e-02 ]
      - [ 44., 37., 5.22727251e+00, -1.03303001e+02, -1.11178001e+02,
          1.15625000e+00, 2.64454559e+02, 1.51029369e-02 ]
      - [ 11., 13., 4.63636351e+00, -3.19351997e+01, -3.70721016e+01, 1.,
          190., 3.54617126e-02 ]
      - [ 34., 32., 4.61764717e+00, -9.51600037e+01, -9.32750015e+01,
          1.14285719e+00, 2.26323532e+02, 3.76399793e-02 ]
      - [ 28., 24., 5.03571415e+00, -6.81197968e+01, -7.02621002e+01, 1.,
          1.86785721e+02, 2.67308038e-02 ]
      - [ 33., 29., 4.21212101e+00, -1.01257004e+02, -1.00177002e+02,
          1.11538458e+00, 2.10969696e+02, 4.48343232e-02 ]
      - [ 27., 22., 4., -7.51774979e+01, -7.00559998e+01, 1.22222221e+00,
          2.56074066e+02, 1.66926719e-02 ]
      - [ 34., 34., 4.88235283e+00, -1.06109001e+02, -1.00042000e+02,
          1.06250000e+00, 2.31970581e+02, 2.30283700e-02 ]
      - [ 2., 2., 9.50000000e+00, -1.31892996e+01, -1.17992001e+01, 1.,
          16., 1.29044438e-02 ]
      - [ 6., 6., 4.33333349e+00, -1.92091007e+01, -1.87791004e+01, 1.,
          133., 1.11333886e-02 ]
      - [ 6., 6., 5., -1.79353008e+01, -1.85977993e+01, 1.,
          9.25000000e+01, 9.11129359e-03 ]
      - [ 23., 27., 3.52173924e+00, -7.03220978e+01, -7.73291016e+01,
          1.08000004e+00, 1.22478264e+02, 1.31610893e-02 ]
      - [ 28., 25., 4.21428585e+00, -6.68237991e+01, -6.78762970e+01,
          1.13636363e+00, 2.67285706e+02, 1.53659331e-02 ]
      - [ 34., 29., 4.17647076e+00, -8.66178970e+01, -7.49334030e+01,
          1.31818187e+00, 2.30264709e+02, 1.22918719e-02 ]
      - [ 39., 35., 3.35897446e+00, -1.19046997e+02, -1.12500000e+02,
          1.25000000e+00, 2.70205139e+02, 1.45655563e-02 ]
      - [ 7., 9., 5., -2.08647003e+01, -3.22765007e+01, 1.12500000e+00,
          1.20285713e+02, 1.24126831e-02 ]
      - [ 23., 24., 5.34782600e+00, -9.19169998e+01, -9.22648010e+01,
          1.09090912e+00, 1.25565216e+02, 6.08299077e-02 ]
      - [ 19., 18., 3.84210515e+00, -5.73619003e+01, -5.80166016e+01,
          1.12500000e+00, 2.20421051e+02, 7.43999407e-02 ]
      - [ 14., 16., 3.57142854e+00, -4.32882996e+01, -4.40899010e+01,
          1.06666672e+00, 3.50142853e+02, 7.99201336e-03 ]
      - [ 23., 21., 4.30434799e+00, -7.97137985e+01, -7.60084000e+01,
          1.04999995e+00, 1.75565216e+02, 5.04503138e-02 ]
      - [ 13., 15., 3.69230771e+00, -3.31529007e+01, -4.90938988e+01, 1.,
          1.74307693e+02, 1.55315353e-02 ]
      - [ 24., 22., 3.70833325e+00, -6.68862991e+01, -6.75232010e+01,
          1.10000002e+00, 1.80291672e+02, 5.20851649e-02 ]
      - [ 18., 23., 3.83333325e+00, -7.23514023e+01, -8.02144012e+01,
          1.09523809e+00, 1.99888885e+02, 3.72514799e-02 ]
      - [ 17., 15., 4.35294104e+00, -4.24546013e+01, -3.63804016e+01,
          1.07142854e+00, 2.03705887e+02, 5.82880788e-02 ]
      - [ 15., 15., 4., -4.14396019e+01, -4.34222984e+01, 1.15384614e+00,
          1.69066666e+02, 4.56214771e-02 ]
      - [ 7., 10., 4.14285707e+00, -2.92940998e+01, -3.26741982e+01,
          1.11111116e+00, 1.20857140e+02, 4.59313057e-02 ]
      - [ 9., 12., 3.11111116e+00, -3.96022987e+01, -3.96458015e+01,
          1.09090912e+00, 1.57555557e+02, 3.18037421e-02 ]
      - [ 14., 13., 4.57142878e+00, -3.86748009e+01, -3.74858017e+01, 1.,
          1.86571426e+02, 1.65750999e-02 ]
      - [ 13., 20., 2.61538458e+00, -5.21944008e+01, -4.99700012e+01,
          1.17647064e+00, 8.89230804e+01, 3.76274548e-02 ]
      - [ 11., 12., 3.54545450e+00, -3.59510002e+01, -4.33601990e+01,
          1.09090912e+00, 1.52363632e+02, 1.40605625e-02 ]
      - [ 34., 36., 4.73529434e+00, -1.01142998e+02, -1.31218002e+02,
          1.16129029e+00, 1.85794113e+02, 9.86795351e-02 ]
      - [ 16., 12., 4.43750000e+00, -4.48984985e+01, -3.88945007e+01, 1.,
          3.42687500e+02, 3.60985324e-02 ]
      - [ 28., 30., 4.17857122e+00, -8.61765976e+01, -8.38996964e+01,
          1.20000005e+00, 1.74392853e+02, 1.92374494e-02 ]
      - [ 27., 26., 4.55555534e+00, -7.67012024e+01, -7.52966995e+01,
          1.18181813e+00, 2.71296295e+02, 1.74732395e-02 ]
      - [ 26., 22., 3.96153855e+00, -8.35667038e+01, -6.92998962e+01, 1.,
          1.39846161e+02, 3.92475761e-02 ]
      - [ 19., 22., 3.42105269e+00, -5.72450981e+01, -6.76694031e+01,
          1.46666670e+00, 1.61684204e+02, 3.83830182e-02 ]
      - [ 10., 9., 3.50000000e+00, -3.31721992e+01, -3.11551991e+01,
          1.12500000e+00, 2.05199997e+02, 7.25790039e-02 ]
      - [ 16., 17., 4.93750000e+00, -5.35494995e+01, -6.89144974e+01, 1.,
          1.69625000e+02, 1.01731181e-01 ]
      - [ 5., 6., 3.79999995e+00, -1.66814995e+01, -1.82110996e+01,
          1.20000005e+00, 322., 7.57731637e-03 ]
      - [ 25., 29., 4., -8.39433975e+01, -9.34282990e+01, 1.20833337e+00,
          177., 1.45742455e-02 ]
      - [ 26., 24., 5.07692289e+00, -5.78981018e+01, -7.51464005e+01,
          1.09090912e+00, 2.04192307e+02, 2.10145507e-02 ]
      - [ 18., 19., 3.44444442e+00, -6.05388985e+01, -6.12723999e+01,
          1.05555558e+00, 2.03444443e+02, 1.45250475e-02 ]
      - [ 12., 9., 4.83333349e+00, -2.91790009e+01, -3.65504990e+01, 1.,
          2.49083328e+02, 3.57815363e-02 ]
      - [ 50., 40., 4.36000013e+00, -1.61466995e+02, -1.25545998e+02,
          1.14285719e+00, 1.95160004e+02, 2.85069514e-02 ]
      - [ 57., 64., 4.17543840e+00, -1.78281006e+02, -2.02526993e+02,
          1.39130437e+00, 2.66245605e+02, 4.03692871e-02 ]
      - [ 60., 52., 4.98333311e+00, -1.63824997e+02, -1.62994003e+02,
          1.23809528e+00, 2.65833344e+02, 1.71032865e-02 ]
      - [ 43., 39., 4.72093010e+00, -1.26452003e+02, -1.14267998e+02,
          1.14705884e+00, 1.40813950e+02, 3.31505500e-02 ]
      - [ 50., 48., 4.98000002e+00, -1.55669998e+02, -1.55580994e+02,
          1.14285719e+00, 1.84339996e+02, 2.62656324e-02 ]
      - [ 29., 29., 4.75862074e+00, -7.58481979e+01, -7.82880020e+01,
          1.15999997e+00, 2.27103455e+02, 1.93862040e-02 ]
      - [ 35., 28., 4.37142849e+00, -9.23649979e+01, -8.14509964e+01,
          1.12000000e+00, 2.28714279e+02, 1.05362982e-02 ]
      - [ 58., 58., 4.43103456e+00, -1.78037003e+02, -1.74781006e+02,
          1.34883726e+00, 1.79534485e+02, 3.50480452e-02 ]
      - [ 29., 30., 4.41379309e+00, -8.04306030e+01, -8.38873978e+01,
          1.11111116e+00, 1.84482758e+02, 1.87176429e-02 ]
      - [ 43., 37., 4.27906990e+00, -9.65103989e+01, -1.08334000e+02,
          1.27586210e+00, 2.58976746e+02, 9.66832973e-03 ]
      - [ 10., 11., 5., -3.06847992e+01, -3.21349983e+01, 1.10000002e+00,
          2.03399994e+02, 1.23871593e-02 ]
      - [ 14., 14., 5., -5.09378014e+01, -4.60416985e+01, 1.07692313e+00,
          1.11285713e+02, 9.57751423e-02 ]
      - [ 37., 35., 3.78378367e+00, -1.05025002e+02, -1.01967003e+02,
          1.29629624e+00, 2.06081085e+02, 4.15375046e-02 ]
      - [ 52., 49., 4.44230747e+00, -1.23917999e+02, -1.36171005e+02,
          1.32432437e+00, 3.14346161e+02, 5.17143011e-02 ]
      - [ 21., 17., 4.23809528e+00, -6.75593033e+01, -5.88101997e+01, 1.,
          280., 2.00655162e-02 ]
      - [ 38., 34., 5.05263138e+00, -1.09388000e+02, -9.91841965e+01,
          1.09677422e+00, 1.71605270e+02, 2.28317901e-02 ]
      - [ 18., 17., 4.16666651e+00, -3.62224998e+01, -4.38069992e+01,
          1.06250000e+00, 2.07166672e+02, 6.31867424e-02 ]
      - [ 34., 35., 4.26470566e+00, -1.21096001e+02, -1.15622002e+02,
          1.12903225e+00, 1.58411758e+02, 6.65201470e-02 ]
      - [ 65., 71., 4.81538439e+00, -1.68761002e+02, -1.95895004e+02,
          1.54347825e+00, 1.89492310e+02, 7.37851858e-02 ]
      - [ 22., 25., 5.09090900e+00, -6.40240021e+01, -6.01495018e+01,
          1.19047618e+00, 1.66181824e+02, 1.00045195e-02 ]
      - [ 43., 43., 4.81395340e+00, -1.26512001e+02, -1.23667999e+02,
          1.30303025e+00, 1.89162796e+02, 1.67454015e-02 ]
      - [ 41., 46., 4.34146357e+00, -1.33574997e+02, -1.43537994e+02,
          1.21052635e+00, 1.36048782e+02, 1.88190024e-02 ]
      - [ 39., 39., 4.07692289e+00, -8.89421997e+01, -1.11196999e+02,
          1.29999995e+00, 251., 5.39180450e-02 ]
      - [ 34., 29., 4.29411745e+00, -9.93574982e+01, -9.87283020e+01,
          1.15999997e+00, 3.28558838e+02, 3.88559140e-02 ]
      - [ 49., 57., 4.42857122e+00, -1.47669006e+02, -1.65455002e+02,
          1.46153843e+00, 2.64571442e+02, 6.34508654e-02 ]
      - [ 55., 54., 4.61818171e+00, -1.42296005e+02, -1.67459000e+02,
          1.20000005e+00, 2.33763641e+02, 8.52576718e-02 ]
      - [ 9., 9., 3.33333325e+00, -3.05084000e+01, -2.95657005e+01, 1.,
          241., 2.72726212e-02 ]
      - [ 11., 15., 5., -3.15557995e+01, -4.41307983e+01, 1.25000000e+00,
          1.20090912e+02, 2.71893628e-02 ]
      - [ 43., 46., 5., -1.08977997e+02, -1.29397003e+02, 1.21052635e+00,
          1.77930237e+02, 1.98205188e-02 ]
      - [ 24., 26., 4.79166651e+00, -8.36076965e+01, -8.23574982e+01,
          1.13043475e+00, 8.91250000e+01, 1.67798419e-02 ]
      - [ 18., 20., 3.94444442e+00, -5.19636993e+01, -5.66941986e+01,
          1.11111116e+00, 2.27222229e+02, 1.15955137e-02 ]
      - [ 8., 9., 2.87500000e+00, -3.03250008e+01, -3.83699989e+01,
          1.12500000e+00, 2.15750000e+02, 2.20927484e-02 ]
      - [ 17., 15., 4., -5.12314987e+01, -4.80351982e+01, 1.07142854e+00,
          2.25294113e+02, 8.68213773e-02 ]
      - [ 18., 15., 4.38888884e+00, -5.23474007e+01, -5.20107002e+01, 1.,
          1.77611115e+02, 6.73625767e-02 ]
      - [ 32., 34., 3.84375000e+00, -9.81945038e+01, -1.14195000e+02,
          1.30769229e+00, 1.91625000e+02, 4.66105640e-02 ]
      - [ 24., 27., 4.37500000e+00, -8.20246964e+01, -7.71671982e+01,
          1.22727275e+00, 1.09708336e+02, 1.77245494e-02 ]
      - [ 40., 40., 4.27500010e+00, -1.12308998e+02, -1.15224998e+02,
          1.08108103e+00, 2.11100006e+02, 5.09729758e-02 ]
      - [ 21., 27., 4.09523821e+00, -7.08094025e+01, -8.18142014e+01,
          1.03846157e+00, 1.82809525e+02, 9.08189341e-02 ]
      - [ 9., 11., 4.22222233e+00, -3.36386986e+01, -3.71896019e+01, 1.,
          1.25666664e+02, 1.29763773e-02 ]
      - [ 14., 16., 4.42857122e+00, -3.89658012e+01, -3.84504013e+01, 1.,
          1.54428574e+02, 1.71221476e-02 ]
      - [ 33., 37., 4.84848499e+00, -1.08806999e+02, -1.13859001e+02,
          1.19354844e+00, 1.33727280e+02, 5.55658080e-02 ]
      - [ 88., 85., 4.38636351e+00, -2.24423004e+02, -2.23141006e+02,
          1.39344263e+00, 1.92750000e+02, 4.52401526e-02 ]
      - [ 23., 21., 4.17391300e+00, -6.22985992e+01, -5.86986008e+01, 1.,
          2.23565216e+02, 1.46773662e-02 ]
      - [ 68., 62., 4., -1.56763000e+02, -1.52807999e+02, 1.34782612e+00,
          2.36205887e+02, 2.61214208e-02 ]
      - [ 15., 14., 3.33333325e+00, -3.08799000e+01, -3.08719997e+01,
          1.07692313e+00, 2.28600006e+02, 6.42946362e-03 ]
      - [ 65., 55., 4.46153831e+00, -1.85406006e+02, -1.68792999e+02,
          1.17021275e+00, 1.58815384e+02, 2.63181850e-02 ]
      - [ 79., 80., 4.48101282e+00, -2.15938004e+02, -2.20639008e+02,
          1.31147540e+00, 1.82025314e+02, 6.08148575e-02 ]
      - [ 8., 9., 4.37500000e+00, -2.92714996e+01, -3.17148991e+01,
          1.12500000e+00, 8.08750000e+01, 3.43728587e-02 ]
      - [ 12., 12., 3.66666675e+00, -3.91431999e+01, -4.29292984e+01, 1.,
          2.15833328e+02, 4.80271578e-02 ]
      - [ 41., 45., 4.21951199e+00, -1.26667000e+02, -1.15795998e+02,
          1.36363637e+00, 1.44390244e+02, 1.11774430e-02 ]
      - [ 57., 59., 3.71929836e+00, -1.68401993e+02, -1.75526993e+02,
          1.25531912e+00, 1.81912277e+02, 2.90951114e-02 ]
      - [ 33., 40., 5.03030300e+00, -1.06549004e+02, -1.18325996e+02,
          1.14285719e+00, 2.65636353e+02, 5.31283058e-02 ]
      - [ 6., 6., 4.33333349e+00, -2.44783993e+01, -2.16767998e+01, 1.,
          3.16166656e+02, 4.27397825e-02 ]
      - [ 29., 31., 4.79310322e+00, -7.36389008e+01, -7.81265030e+01,
          1.03333330e+00, 1.96689651e+02, 3.01474892e-02 ]
      - [ 3., 3., 5., -1.08635998e+01, -8.10984039e+00, 1.,
          9.66666641e+01, 1.76420152e-01 ]
      - [ 20., 19., 3.25000000e+00, -5.91557999e+01, -5.99762001e+01,
          1.26666665e+00, 1.40500000e+02, 4.01046798e-02 ]
      - [ 25., 19., 3.07999992e+00, -8.81628036e+01, -6.76134033e+01,
          1.11764705e+00, 3.11880005e+02, 8.56055841e-02 ]
      - [ 51., 49., 5.35294104e+00, -1.60358994e+02, -1.48612000e+02,
          1.19512200e+00, 1.71784317e+02, 2.81040762e-02 ]
      - [ 39., 33., 4.51282072e+00, -1.09386002e+02, -1.00246002e+02,
          1.22222221e+00, 3.03692322e+02, 4.89558801e-02 ]
      - [ 52., 48., 4.55769253e+00, -1.31444000e+02, -1.35470993e+02,
          1.37142861e+00, 2.56711548e+02, 1.95183177e-02 ]
      - [ 19., 18., 3.15789485e+00, -4.56097984e+01, -4.78870010e+01,
          1.28571427e+00, 2.58947357e+02, 1.54299717e-02 ]
      - [ 9., 10., 4.11111116e+00, -3.57120018e+01, -3.53274994e+01, 1.,
          2.57333344e+02, 3.02347764e-02 ]
      - [ 36., 39., 4.47222233e+00, -9.94040985e+01, -1.03285004e+02,
          1.21875000e+00, 2.31444443e+02, 4.84097153e-02 ]
      - [ 44., 44., 4.52272749e+00, -1.34003006e+02, -1.36272995e+02,
          1.41935480e+00, 2.17909088e+02, 2.58648377e-02 ]
      - [ 36., 25., 4.47222233e+00, -7.71998978e+01, -6.94853973e+01,
          1.19047618e+00, 2.52388885e+02, 3.54356952e-02 ]
      - [ 83., 78., 4.15662670e+00, -2.08619003e+02, -2.17587006e+02,
          1.47169816e+00, 2.56722900e+02, 3.90079468e-02 ]
      - [ 44., 40., 4.77272749e+00, -1.16825996e+02, -1.05633003e+02,
          1.21212125e+00, 2.60545441e+02, 1.38273994e-02 ]
      - [ 15., 9., 3.26666665e+00, -5.49695015e+01, -3.85281982e+01,
          1.12500000e+00, 1.45133331e+02, 1.05105601e-01 ]
      - [ 17., 16., 4.70588255e+00, -4.31708984e+01, -4.11781998e+01,
          1.06666672e+00, 2.02235291e+02, 3.53422426e-02 ]
      - [ 52., 49., 4.73076916e+00, -1.24874001e+02, -1.24512001e+02,
          1.53125000e+00, 2.25076920e+02, 4.27209213e-02 ]
      - [ 45., 40., 4.17777777e+00, -1.32022995e+02, -1.17955002e+02,
          1.17647064e+00, 1.95044449e+02, 2.32907906e-02 ]
      - [ 38., 36., 5., -9.04565964e+01, -1.01483002e+02, 1.28571427e+00,
          2.88473694e+02, 3.76863182e-02 ]
      - [ 52., 51., 5.07692289e+00, -1.40957001e+02, -1.42106003e+02,
          1.27499998e+00, 1.73846161e+02, 4.97170538e-02 ]
      - [ 31., 30., 4.74193525e+00, -7.40742035e+01, -7.95774994e+01,
          1.15384614e+00, 2.66161285e+02, 3.83383967e-02 ]
      - [ 32., 30., 4.71875000e+00, -8.55660019e+01, -1.05712997e+02,
          1.11111116e+00, 2.08906250e+02, 2.71996129e-02 ]
      - [ 16., 19., 4.50000000e+00, -5.74337006e+01, -6.17649002e+01,
          1.05555558e+00, 1.96937500e+02, 1.09626707e-02 ]
      - [ 29., 26., 4.13793087e+00, -9.13024979e+01, -7.90522003e+01,
          1.13043475e+00, 1.86586212e+02, 5.81649318e-02 ]
      - [ 70., 70., 4.09999990e+00, -2.24173996e+02, -2.23143997e+02,
          1.29629624e+00, 1.84242859e+02, 5.93539663e-02 ]
      - [ 8., 10., 4.50000000e+00, -3.43056984e+01, -2.93628006e+01, 1.,
          1.35750000e+02, 1.33438885e-01 ]
      - [ 44., 50., 4.38636351e+00, -1.18973999e+02, -1.36520996e+02,
          1.38888884e+00, 2.56954559e+02, 4.21028994e-02 ]
      - [ 37., 40., 4.35135126e+00, -1.20009003e+02, -1.24557999e+02,
          1.25000000e+00, 2.12702698e+02, 2.43923124e-02 ]
      - [ 16., 16., 5.56250000e+00, -6.48561020e+01, -5.47761002e+01, 1.,
          1.73500000e+02, 2.10775156e-02 ]
      - [ 21., 19., 3., -5.89496994e+01, -6.30751991e+01, 1.05555558e+00,
          2.21190475e+02, 5.17318323e-02 ]
      - [ 5., 6., 2.40000010e+00, -2.81499004e+01, -2.49223003e+01, 1.,
          114., 2.32072026e-02 ]
      - [ 19., 18., 3.78947377e+00, -4.61186981e+01, -4.47044983e+01,
          1.12500000e+00, 2.19526321e+02, 4.47753556e-02 ]
      - [ 19., 20., 5.21052647e+00, -4.93614006e+01, -5.34580002e+01, 1.,
          9.32105255e+01, 1.12406142e-01 ]
      - [ 26., 25., 4.03846169e+00, -9.23180008e+01, -6.90419998e+01,
          1.13636363e+00, 2.58730774e+02, 9.01818722e-02 ]
      - [ 17., 19., 4.47058821e+00, -5.22759018e+01, -5.81321983e+01, 1.,
          2.17529419e+02, 4.69914898e-02 ]
      - [ 18., 21., 4.72222233e+00, -4.42622986e+01, -4.80177994e+01,
          1.10526311e+00, 158., 8.53650086e-03 ]
      - [ 37., 38., 4.21621609e+00, -1.27889000e+02, -1.10251999e+02,
          1.22580647e+00, 1.35486481e+02, 4.86744754e-02 ]
      - [ 20., 22., 3.59999990e+00, -5.52097015e+01, -5.86945000e+01,
          1.29411769e+00, 270., 2.21040286e-02 ]
      - [ 73., 66., 3.39726019e+00, -2.50848007e+02, -2.39031998e+02,
          1.43478262e+00, 2.05986298e+02, 9.21146125e-02 ]
      - [ 40., 42., 4.67500019e+00, -1.09649002e+02, -1.29369995e+02,
          1.20000005e+00, 2.25199997e+02, 6.21431693e-02 ]
      - [ 10., 9., 5.80000019e+00, -3.27647018e+01, -3.96264992e+01, 1.,
          1.55899994e+02, 6.35571927e-02 ]
      - [ 14., 13., 3.85714293e+00, -3.65453987e+01, -4.10289993e+01, 1.,
          1.33500000e+02, 6.67236075e-02 ]
      - [ 13., 13., 4.15384626e+00, -4.68769989e+01, -3.69375000e+01,
          1.08333337e+00, 1.91153839e+02, 3.86642888e-02 ]
      - [ 9., 8., 4., -2.43418007e+01, -3.38106003e+01, 1.,
          1.07555557e+02, 1.09240413e-02 ]
      - [ 5., 6., 3.20000005e+00, -1.51791000e+01, -2.05641003e+01, 1.,
          128., 8.82285926e-03 ]
      - [ 13., 13., 3.46153855e+00, -3.63358994e+01, -3.82803001e+01,
          1.18181813e+00, 2.85230774e+02, 1.07539836e-02 ]
      - [ 7., 9., 2.85714293e+00, -3.07777004e+01, -2.89454994e+01, 1.,
          6.22857132e+01, 4.32922915e-02 ]
      - [ 15., 17., 5.46666670e+00, -4.45475006e+01, -4.82480011e+01, 1.,
          2.35533340e+02, 2.03285404e-02 ]
      - [ 20., 20., 4.75000000e+00, -5.83742981e+01, -5.88917007e+01,
          1.05263162e+00, 2.03800003e+02, 2.88566798e-02 ]
      - [ 4., 4., 3.50000000e+00, -1.44345999e+01, -1.42536001e+01, 1.,
          118., 4.82649030e-03 ]
      - [ 64., 53., 3.79687500e+00, -1.96697006e+02, -1.84783005e+02,
          1.26190472e+00, 2.01062500e+02, 1.18796475e-01 ]
      - [ 29., 25., 4., -9.72531967e+01, -8.75644989e+01, 1.08695650e+00,
          1.79793106e+02, 8.70410874e-02 ]
      - [ 24., 17., 3.91666675e+00, -7.74815979e+01, -5.08088989e+01, 1.,
          2.17750000e+02, 7.99982026e-02 ]
      - [ 9., 9., 3.77777767e+00, -3.31786995e+01, -2.99526997e+01, 1.,
          2.20555557e+02, 3.48000079e-02 ]
      - [ 18., 19., 4.50000000e+00, -6.99243011e+01, -7.38522034e+01,
          1.26666665e+00, 1.36666672e+02, 1.11801796e-01 ]
      - [ 19., 19., 3.63157892e+00, -6.61750031e+01, -6.51495972e+01,
          1.05555558e+00, 1.92578949e+02, 3.89755666e-02 ]
      - [ 17., 16., 3.76470590e+00, -5.01682014e+01, -5.15154991e+01,
          1.14285719e+00, 2.02294113e+02, 1.42199412e-01 ]
      - [ 39., 34., 3.56410265e+00, -1.31016006e+02, -1.13823997e+02,
          1.17241383e+00, 2.18641022e+02, 7.15182051e-02 ]
      - [ 39., 33., 4.10256433e+00, -1.25022003e+02, -1.15388000e+02,
          1.17857146e+00, 1.79897430e+02, 4.33762819e-02 ]
      - [ 36., 36., 3.27777767e+00, -1.49167999e+02, -1.46966995e+02,
          1.24137926e+00, 1.40833328e+02, 7.81455263e-02 ]
      - [ 29., 26., 3.48275852e+00, -9.53664017e+01, -1.05978996e+02,
          1.29999995e+00, 1.95413788e+02, 5.67237027e-02 ]
      - [ 19., 20., 5.36842108e+00, -5.92414017e+01, -4.17254982e+01,
          1.11111116e+00, 1.91473679e+02, 5.76514378e-02 ]
      - [ 29., 23., 3.72413802e+00, -9.20425034e+01, -9.27833023e+01,
          1.04545450e+00, 2.15482758e+02, 5.26369140e-02 ]
      - [ 47., 41., 4.65957451e+00, -1.51156998e+02, -1.40408005e+02,
          1.10810816e+00, 1.83234039e+02, 4.92965616e-02 ]
      - [ 57., 51., 4.35087729e+00, -1.66013000e+02, -1.65862000e+02,
          1.45714283e+00, 2.11824554e+02, 3.82136256e-02 ]
      - [ 17., 18., 3.94117641e+00, -6.50643005e+01, -5.29196014e+01, 1.,
          1.84176468e+02, 7.78782815e-02 ]
      - [ 37., 36., 4.67567587e+00, -1.26247002e+02, -1.35367004e+02,
          1.09090912e+00, 1.18513512e+02, 1.23565972e-01 ]
      - [ 19., 16., 2.68421054e+00, -5.27543983e+01, -4.99299011e+01,
          1.14285719e+00, 2.14894730e+02, 6.18834682e-02 ]
      - [ 13., 14., 3.92307687e+00, -6.32043991e+01, -5.70938988e+01,
          1.07692313e+00, 1.53769226e+02, 4.35285047e-02 ]
      - [ 27., 25., 4.37037039e+00, -8.32161026e+01, -8.64282990e+01,
          1.19047618e+00, 2.38259262e+02, 1.71893254e-01 ]
      - [ 33., 33., 4.12121201e+00, -9.22093964e+01, -8.88019028e+01,
          1.22222221e+00, 2.38757568e+02, 3.72303873e-02 ]
      - [ 21., 22., 4.33333349e+00, -6.00428009e+01, -6.04803009e+01,
          1.04761910e+00, 2.21857147e+02, 6.56917095e-02 ]
      - [ 32., 35., 3.75000000e+00, -1.19981003e+02, -136.,
          1.29629624e+00, 1.55062500e+02, 1.45819858e-01 ]
      - [ 27., 27., 4.59259272e+00, -9.01044998e+01, -7.39460983e+01,
          1.17391300e+00, 1.67444443e+02, 9.53623205e-02 ]
      - [ 22., 24., 3.54545450e+00, -6.78777008e+01, -1.03208000e+02,
          1.04347825e+00, 1.08681816e+02, 1.05207108e-01 ]
      - [ 28., 24., 4.89285707e+00, -8.34514999e+01, -8.54796982e+01,
          1.09090912e+00, 2.46285721e+02, 1.94831401e-01 ]
      - [ 26., 26., 3.50000000e+00, -8.63757019e+01, -8.72240982e+01,
          1.23809528e+00, 1.89730774e+02, 2.53540538e-02 ]
      - [ 28., 34., 3.42857146e+00, -8.56793976e+01, -9.47425003e+01,
          1.21428573e+00, 1.70535721e+02, 2.82586161e-02 ]
      - [ 14., 14., 4.78571415e+00, -4.57468987e+01, -4.66724014e+01, 1.,
          151., 1.89461019e-02 ]
      - [ 10., 13., 3.70000005e+00, -4.23195992e+01, -3.71833000e+01,
          1.29999995e+00, 2.05699997e+02, 1.14475921e-01 ]
      - [ 59., 49., 4.50847435e+00, -1.51826996e+02, -1.50690002e+02,
          1.11363637e+00, 2.11864410e+02, 5.59350438e-02 ]
      - [ 38., 32., 3.81578946e+00, -9.66970978e+01, -9.08206024e+01,
          1.10344827e+00, 2.27394730e+02, 5.87889403e-02 ]
      - [ 31., 30., 3.90322590e+00, -7.86414032e+01, -6.91642990e+01,
          1.15384614e+00, 1.30935486e+02, 1.40178390e-02 ]
      - [ 12., 13., 5.08333349e+00, -4.25287018e+01, -4.02453003e+01, 1.,
          1.16916664e+02, 6.89641014e-02 ]
      - [ 23., 23., 3.91304350e+00, -6.97634964e+01, -7.81780014e+01,
          1.21052635e+00, 2.11739136e+02, 3.69247198e-02 ]
      - [ 26., 22., 4.69230747e+00, -8.68541031e+01, -7.96670990e+01,
          1.22222221e+00, 3.21730774e+02, 1.17334656e-01 ]
      - [ 28., 25., 4.50000000e+00, -9.27372971e+01, -9.00574036e+01,
          1.04166663e+00, 1.74892853e+02, 3.67520377e-02 ]
      - [ 18., 19., 4.33333349e+00, -5.20163002e+01, -5.31575012e+01,
          1.05555558e+00, 1.65333328e+02, 3.46647464e-02 ]
      - [ 21., 19., 5.23809528e+00, -6.33382988e+01, -6.57389984e+01,
          1.05555558e+00, 2.19857147e+02, 5.67908958e-02 ]
      - [ 24., 21., 3.91666675e+00, -6.93920975e+01, -6.83720016e+01,
          1.10526311e+00, 2.13750000e+02, 1.30919525e-02 ]
      - [ 52., 47., 4.65384626e+00, -1.47386002e+02, -1.49209000e+02,
          1.27027023e+00, 1.88211533e+02, 4.09245081e-02 ]
      - [ 20., 19., 4.50000000e+00, -7.18299026e+01, -7.37594986e+01,
          1.11764705e+00, 2.52399994e+02, 2.77455747e-02 ]
      - [ 44., 40., 3.88636374e+00, -1.22265999e+02, -1.06194000e+02,
          1.21212125e+00, 2.25636368e+02, 5.04817963e-02 ]
      - [ 6., 6., 6.16666651e+00, -2.53572006e+01, -2.86944008e+01, 1.,
          3.22333344e+02, 4.34757210e-02 ]
      - [ 26., 28., 3.92307687e+00, -8.01511002e+01, -8.65786972e+01,
          1.21739125e+00, 1.57346161e+02, 4.21689339e-02 ]
      - [ 18., 15., 3.88888884e+00, -4.78259010e+01, -4.47374992e+01,
          1.15384614e+00, 3.43111115e+02, 1.33333309e-02 ]
      - [ 44., 39., 4.20454550e+00, -1.17240997e+02, -1.05718002e+02,
          1.11428571e+00, 1.77272720e+02, 4.26642336e-02 ]
      - [ 23., 23., 4.39130449e+00, -6.74169998e+01, -7.22465973e+01,
          1.14999998e+00, 1.60043472e+02, 2.62320489e-02 ]
      - [ 36., 36., 4.11111116e+00, -1.12010002e+02, -1.11796997e+02,
          1.09090912e+00, 1.55916672e+02, 5.84437177e-02 ]
      - [ 36., 33., 4.38888884e+00, -8.32470016e+01, -8.70198975e+01,
          1.10000002e+00, 2.62444458e+02, 4.21977304e-02 ]
      - [ 9., 10., 5., -2.69983997e+01, -3.07355003e+01, 1.,
          1.31333328e+02, 4.31035869e-02 ]
      - [ 14., 15., 2.92857146e+00, -4.55867004e+01, -5.11391983e+01,
          1.07142854e+00, 2.41785721e+02, 1.70486551e-02 ]
      - [ 9., 9., 4., -2.44983997e+01, -2.64344006e+01, 1.,
          2.32333328e+02, 1.43418945e-02 ]
      - [ 41., 44., 4.26829290e+00, -1.19193001e+02, -1.21723999e+02,
          1.25714290e+00, 2.41365860e+02, 1.81723218e-02 ]
      - [ 22., 25., 4.36363649e+00, -6.96144028e+01, -6.54774017e+01,
          1.19047618e+00, 2.47909088e+02, 3.27850506e-02 ]
      - [ 72., 59., 3.56944442e+00, -1.56328003e+02, -1.55427002e+02,
          1.31111109e+00, 2.50805557e+02, 2.62624230e-02 ]
      - [ 12., 9., 4.41666651e+00, -3.10165005e+01, -2.72999992e+01, 1.,
          3.12500000e+02, 1.93134174e-02 ]
      - [ 14., 15., 3.57142854e+00, -4.65359001e+01, -4.29107018e+01,
          1.15384614e+00, 2.12428574e+02, 3.99765894e-02 ]
      - [ 25., 25., 4.11999989e+00, -7.93650970e+01, -8.32083969e+01,
          1.04166663e+00, 1.39759995e+02, 5.93779646e-02 ]
      - [ 6., 6., 5.33333349e+00, -1.41335001e+01, -1.09670000e+01, 1.,
          8.66666641e+01, 2.09333822e-01 ]
      - [ 15., 15., 4.33333349e+00, -4.85391006e+01, -5.45970001e+01,
          1.07142854e+00, 1.52266663e+02, 2.65802946e-02 ]
      - [ 25., 21., 3.35999990e+00, -7.88868027e+01, -7.39794006e+01,
          1.23529410e+00, 2.77119995e+02, 6.52266368e-02 ]
      - [ 16., 18., 3.56250000e+00, -4.97722015e+01, -5.91649017e+01,
          1.05882359e+00, 1.93500000e+02, 5.19305542e-02 ]
      - [ 30., 28., 4.19999981e+00, -8.38554001e+01, -8.85061035e+01,
          1.16666663e+00, 1.53066666e+02, 7.30440691e-02 ]
      - [ 7., 6., 2.14285707e+00, -2.98274994e+01, -2.86086998e+01,
          1.20000005e+00, 3.89571442e+02, 4.36477140e-02 ]
      - [ 40., 43., 4.27500010e+00, -9.52834015e+01, -1.06181000e+02,
          1.53571427e+00, 2.61274994e+02, 7.04606473e-02 ]
      - [ 17., 18., 3.58823538e+00, -5.23540001e+01, -5.24514008e+01,
          1.12500000e+00, 2.36588242e+02, 2.44204160e-02 ]
      - [ 13., 12., 3.84615374e+00, -4.22425995e+01, -2.97628994e+01,
          1.20000005e+00, 2.53461533e+02, 9.46761817e-02 ]
      - [ 33., 31., 3.54545450e+00, -8.68919983e+01, -8.07873001e+01,
          1.24000001e+00, 2.49484848e+02, 3.20466347e-02 ]
      - [ 7., 9., 5.42857122e+00, -2.54025002e+01, -2.47467003e+01, 1.,
          1.69714279e+02, 2.89889742e-02 ]
      - [ 8., 9., 3.50000000e+00, -2.04251995e+01, -2.44664993e+01, 1.,
          203., 4.20770096e-03 ]
      - [ 24., 24., 4.04166651e+00, -8.25100021e+01, -6.95344009e+01,
          1.09090912e+00, 1.15208336e+02, 3.63118686e-02 ]
      - [ 25., 25., 5.36000013e+00, -8.94543991e+01, -8.92818985e+01,
          1.04166663e+00, 1.52600006e+02, 2.73797587e-02 ]
      - [ 8., 8., 3.87500000e+00, -2.33862991e+01, -2.17763004e+01, 1.,
          9.66250000e+01, 1.28212562e-02 ]
      - [ 25., 22., 4.28000021e+00, -7.12561035e+01, -6.45707016e+01,
          1.04761910e+00, 1.96720001e+02, 1.22776302e-02 ]
      - [ 37., 32., 3.89189196e+00, -9.47940979e+01, -9.90709991e+01,
          1.18518519e+00, 1.98621628e+02, 1.69916227e-02 ]
      - [ 34., 28., 4.76470566e+00, -6.73118973e+01, -7.35137024e+01,
          1.12000000e+00, 2.74882355e+02, 1.44890398e-02 ]
      - [ 44., 37., 5.22727251e+00, -1.03303001e+02, -1.02751999e+02,
          1.15625000e+00, 2.64454559e+02, 1.51029369e-02 ]
      - [ 2., 3., 9.50000000e+00, -1.31892996e+01, -1.55538998e+01, 1.,
          16., 1.29044438e-02 ]
      - [ 6., 6., 4.33333349e+00, -1.92091007e+01, -1.78696003e+01, 1.,
          133., 1.11333886e-02 ]
      - [ 33., 27., 3.87878799e+00, -9.56156006e+01, -9.21299973e+01,
          1.35000002e+00, 2.09484848e+02, 2.07086559e-02 ]
      - [ 6., 6., 5., -1.79353008e+01, -1.85408001e+01, 1.,
          9.25000000e+01, 9.11129359e-03 ]
      - [ 23., 25., 3.52173924e+00, -7.03220978e+01, -7.09468994e+01,
          1.04166663e+00, 1.22478264e+02, 1.31610893e-02 ]
      - [ 34., 32., 4.17647076e+00, -8.66178970e+01, -7.56081009e+01,
          1.27999997e+00, 2.30264709e+02, 1.22918719e-02 ]
      - [ 11., 10., 3., -3.51290016e+01, -2.79647007e+01, 1.,
          9.51818161e+01, 9.65701323e-03 ]
      - [ 7., 7., 4.14285707e+00, -2.92940998e+01, -2.69472008e+01, 1.,
          1.20857140e+02, 4.59313057e-02 ]
      - [ 11., 13., 3.54545450e+00, -3.59510002e+01, -3.90603981e+01,
          1.18181813e+00, 1.52363632e+02, 1.40605625e-02 ]
      - [ 16., 16., 4.43750000e+00, -4.48984985e+01, -4.68274002e+01, 1.,
          3.42687500e+02, 3.60985324e-02 ]
      - [ 28., 30., 4.17857122e+00, -8.61765976e+01, -8.97539978e+01,
          1.20000005e+00, 1.74392853e+02, 1.92374494e-02 ]
      - [ 12., 11., 4.83333349e+00, -2.91790009e+01, -3.41520004e+01,
          1.10000002e+00, 2.49083328e+02, 3.57815363e-02 ]
      - [ 38., 38., 5.10526323e+00, -1.35479996e+02, -1.24150002e+02,
          1.15151513e+00, 2.23210526e+02, 2.62994394e-02 ]
      - [ 33., 30., 4.54545450e+00, -1.02869003e+02, -9.01677017e+01,
          1.30434787e+00, 3.59606049e+02, 2.70332396e-02 ]
      - [ 30., 32., 4.56666660e+00, -8.50726013e+01, -9.58351974e+01,
          1.18518519e+00, 1.91899994e+02, 1.97024625e-02 ]
      - [ 23., 23., 4.43478251e+00, -7.83554993e+01, -7.07459030e+01,
          1.09523809e+00, 2.00347824e+02, 3.33749689e-02 ]
      - [ 29., 28., 4.44827604e+00, -8.70770035e+01, -8.24936981e+01,
          1.33333337e+00, 2.66172424e+02, 2.11577602e-02 ]
      - [ 44., 45., 4.50000000e+00, -1.35373993e+02, -1.25512001e+02,
          1.21621621e+00, 1.82522720e+02, 2.83692759e-02 ]
      - [ 58., 58., 4.43103456e+00, -1.78037003e+02, -1.90171005e+02,
          1.28888893e+00, 1.79534485e+02, 3.50480452e-02 ]
      - [ 24., 21., 3.75000000e+00, -7.32283020e+01, -7.10187988e+01,
          1.04999995e+00, 1.93541672e+02, 1.96110439e-02 ]
      - [ 10., 11., 5., -3.06847992e+01, -3.21349983e+01, 1.10000002e+00,
          2.03399994e+02, 1.23871593e-02 ]
      - [ 22., 22., 4.86363649e+00, -5.06906013e+01, -5.95274010e+01,
          1.22222221e+00, 2.94045441e+02, 5.42335911e-03 ]
      - [ 42., 50., 5., -1.21114998e+02, -1.22153999e+02, 1.28205132e+00,
          1.90809525e+02, 1.63146500e-02 ]
      - [ 52., 51., 4.44230747e+00, -1.23917999e+02, -1.36289993e+02,
          1.30769229e+00, 3.14346161e+02, 5.17143011e-02 ]
      - [ 34., 37., 4.26470566e+00, -1.21096001e+02, -1.16834000e+02,
          1.15625000e+00, 1.58411758e+02, 6.65201470e-02 ]
      - [ 31., 30., 4.09677410e+00, -7.34866028e+01, -6.92193985e+01,
          1.11111116e+00, 1.34838715e+02, 3.35735753e-02 ]
      - [ 16., 16., 4.87500000e+00, -4.70018005e+01, -4.20966988e+01, 1.,
          2.52812500e+02, 2.28280518e-02 ]
      - [ 31., 29., 4.70967722e+00, -9.51753998e+01, -7.39229965e+01,
          1.15999997e+00, 1.68387100e+02, 1.36762774e-02 ]
      - [ 8., 10., 2.87500000e+00, -3.03250008e+01, -3.28039017e+01,
          1.11111116e+00, 2.15750000e+02, 2.20927484e-02 ]
      - [ 45., 45., 4.42222214e+00, -1.33932999e+02, -1.22883003e+02,
          1.18421054e+00, 2.11888885e+02, 1.97809171e-02 ]
      - [ 8., 10., 4.37500000e+00, -2.92714996e+01, -3.17810993e+01,
          1.11111116e+00, 8.08750000e+01, 3.43728587e-02 ]
      - [ 12., 12., 3.66666675e+00, -3.91431999e+01, -4.13392982e+01, 1.,
          2.15833328e+02, 4.80271578e-02 ]
      - [ 15., 16., 3.33333325e+00, -5.53181000e+01, -5.29480019e+01,
          1.23076928e+00, 1.64666672e+02, 1.90575924e-02 ]
      - [ 32., 29., 4.37500000e+00, -8.71880035e+01, -7.83153000e+01,
          1.11538458e+00, 2.29843750e+02, 4.08471450e-02 ]
      - [ 24., 27., 3.91666675e+00, -8.04142990e+01, -7.75057983e+01,
          1.17391300e+00, 2.46333328e+02, 4.28159684e-02 ]
      - [ 28., 27., 3.64285707e+00, -8.11320038e+01, -7.02962036e+01,
          1.08000004e+00, 1.40107147e+02, 1.28076170e-02 ]
      - [ 53., 47., 4.37735844e+00, -1.35100998e+02, -1.31141998e+02,
          1.34285712e+00, 2.73132080e+02, 4.48240452e-02 ]
      - [ 32., 29., 4.59375000e+00, -8.59784012e+01, -7.62891006e+01,
          1.31818187e+00, 2.90718750e+02, 5.48162013e-02 ]
      - [ 45., 43., 4.84444427e+00, -1.31630005e+02, -1.17320000e+02,
          1.30303025e+00, 2.58622223e+02, 2.36231610e-02 ]
      - [ 25., 24., 5.48000002e+00, -7.00252991e+01, -5.84668999e+01,
          1.04347825e+00, 1.11320000e+02, 5.77371791e-02 ]
      - [ 57., 56., 4.49122810e+00, -1.81391006e+02, -1.69873993e+02,
          1.33333337e+00, 2.28877197e+02, 5.07011153e-02 ]
      - [ 11., 10., 3.81818175e+00, -3.59169998e+01, -3.71442986e+01, 1.,
          1.99363632e+02, 1.00536719e-02 ]
      - [ 50., 50., 4.69999981e+00, -1.39108994e+02, -1.39787994e+02,
          1.21951222e+00, 2.20740005e+02, 1.13219813e-01 ]
      - [ 17., 16., 5.17647076e+00, -3.69933014e+01, -4.90414009e+01,
          1.14285719e+00, 3.56823517e+02, 1.18728146e-01 ]
      - [ 38., 37., 5., -9.04565964e+01, -1.03094002e+02, 1.27586210e+00,
          2.88473694e+02, 3.76863182e-02 ]
      - [ 3., 3., 3.66666675e+00, -8.84181976e+00, -1.13671999e+01, 1.,
          230., 5.11891097e-02 ]
      - [ 4., 4., 4., -6.79531002e+00, -1.78111992e+01, 1.,
          1.62750000e+02, 5.03289839e-03 ]
      - [ 23., 22., 4.52173901e+00, -6.85089035e+01, -7.54057999e+01,
          1.10000002e+00, 1.55086960e+02, 1.65183261e-01 ]
      - [ 22., 20., 3.50000000e+00, -6.89616013e+01, -5.92776985e+01,
          1.17647064e+00, 1.60772720e+02, 4.60807458e-02 ]
      - [ 11., 10., 3.45454550e+00, -3.85018005e+01, -2.95730991e+01, 1.,
          1.19909088e+02, 8.18117782e-02 ]
      - [ 10., 10., 3.59999990e+00, -2.35354996e+01, -2.44967003e+01, 1.,
          1.14500000e+02, 8.84578563e-03 ]
      - [ 24., 24., 4.41666651e+00, -7.58576965e+01, -6.77667999e+01,
          1.14285719e+00, 1.10625000e+02, 1.53293252e-01 ]
      - [ 4., 6., 3., -1.76508007e+01, -2.23815994e+01, 1.,
          1.25750000e+02, 1.12262871e-02 ]
      - [ 17., 19., 5.05882359e+00, -5.23889008e+01, -4.96615982e+01, 1.,
          1.10529411e+02, 1.84529468e-01 ]
      - [ 36., 38., 3.27777767e+00, -1.49167999e+02, -1.45610992e+02,
          1.26666665e+00, 1.40833328e+02, 7.81455263e-02 ]
      - [ 23., 24., 4.21739149e+00, -7.20154037e+01, -6.52269974e+01,
          1.14285719e+00, 1.81260864e+02, 1.17567651e-01 ]
      - [ 25., 27., 4.40000010e+00, -8.14712982e+01, -8.16054993e+01,
          1.22727275e+00, 2.77760010e+02, 1.93242207e-02 ]
      - [ 31., 31., 3.90322590e+00, -7.86414032e+01, -7.25161972e+01,
          1.14814818e+00, 1.30935486e+02, 1.40178390e-02 ]
      - [ 12., 12., 5.08333349e+00, -4.25287018e+01, -4.07280998e+01, 1.,
          1.16916664e+02, 6.89641014e-02 ]
      - [ 23., 24., 3.91304350e+00, -6.97634964e+01, -8.24279022e+01,
          1.26315784e+00, 2.11739136e+02, 3.69247198e-02 ]
      - [ 26., 23., 4.69230747e+00, -8.68541031e+01, -8.07005997e+01,
          1.21052635e+00, 3.21730774e+02, 1.17334656e-01 ]
      - [ 24., 22., 3.91666675e+00, -6.93920975e+01, -7.29402008e+01,
          1.15789473e+00, 2.13750000e+02, 1.30919525e-02 ]
      - [ 6., 6., 6.16666651e+00, -2.53572006e+01, -2.72015991e+01, 1.,
          3.22333344e+02, 4.34757210e-02 ]
      - [ 18., 18., 3.88888884e+00, -4.78259010e+01, -4.73003006e+01,
          1.20000005e+00, 3.43111115e+02, 1.33333309e-02 ]
      - [ 9., 10., 5., -2.69983997e+01, -3.14088001e+01, 1.,
          1.31333328e+02, 4.31035869e-02 ]
      - [ 14., 14., 2.92857146e+00, -4.55867004e+01, -4.58674011e+01,
          1.16666663e+00, 2.41785721e+02, 1.70486551e-02 ]
      - [ 4., 5., 6., -1.88486996e+01, -1.46777000e+01, 1., 147.,
          1.46951573e-02 ]
      - [ 30., 30., 4.19999981e+00, -8.38554001e+01, -9.67366028e+01,
          1.20000005e+00, 1.53066666e+02, 7.30440691e-02 ]
      - [ 7., 7., 2.14285707e+00, -2.98274994e+01, -3.00767994e+01,
          1.39999998e+00, 3.89571442e+02, 4.36477140e-02 ]
      - [ 13., 13., 3.84615374e+00, -4.22425995e+01, -3.19808006e+01,
          1.29999995e+00, 2.53461533e+02, 9.46761817e-02 ]
      - [ 39., 44., 4.58974361e+00, -1.12529999e+02, -1.28848007e+02,
          1.33333337e+00, 2.44205124e+02, 9.82454792e-02 ]
      - [ 20., 25., 4.44999981e+00, -9.29367981e+01, -8.51873016e+01,
          1.19047618e+00, 7.29499969e+01, 6.69087842e-02 ]
      - [ 8., 9., 3.50000000e+00, -2.04251995e+01, -2.44664993e+01, 1.,
          203., 4.20770096e-03 ]
      - [ 24., 25., 4.37500000e+00, -6.09259987e+01, -6.58837967e+01,
          1.19047618e+00, 1.91875000e+02, 7.19597330e-03 ]
      - [ 24., 26., 4.04166651e+00, -8.25100021e+01, -7.71837997e+01,
          1.13043475e+00, 1.15208336e+02, 3.63118686e-02 ]
      - [ 8., 8., 3.87500000e+00, -2.33862991e+01, -2.17763004e+01, 1.,
          9.66250000e+01, 1.28212562e-02 ]
      - [ 6., 6., 4.33333349e+00, -1.92091007e+01, -1.78696003e+01, 1.,
          133., 1.11333886e-02 ]
      - [ 6., 6., 5., -1.79353008e+01, -1.85977993e+01, 1.,
          9.25000000e+01, 9.11129359e-03 ]
      - [ 23., 24., 3.52173924e+00, -7.03220978e+01, -6.58448029e+01,
          1.04347825e+00, 1.22478264e+02, 1.31610893e-02 ]
      - [ 13., 13., 3.69230771e+00, -3.31529007e+01, -4.25031013e+01, 1.,
          1.74307693e+02, 1.55315353e-02 ]
      - [ 17., 16., 4.35294104e+00, -4.24546013e+01, -4.16539001e+01,
          1.06666672e+00, 2.03705887e+02, 5.82880788e-02 ]
      - [ 16., 17., 4.43750000e+00, -4.48984985e+01, -5.10648994e+01,
          1.13333333e+00, 3.42687500e+02, 3.60985324e-02 ]
      - [ 19., 22., 3.42105269e+00, -5.72450981e+01, -6.64913025e+01,
          1.22222221e+00, 1.61684204e+02, 3.83830182e-02 ]
      - [ 57., 60., 4.17543840e+00, -1.78281006e+02, -1.79567993e+02,
          1.46341467e+00, 2.66245605e+02, 4.03692871e-02 ]
      - [ 30., 33., 4.56666660e+00, -8.50726013e+01, -1.10418999e+02,
          1.26923072e+00, 1.91899994e+02, 1.97024625e-02 ]
      - [ 24., 30., 4.62500000e+00, -8.53938980e+01, -9.36896973e+01,
          1.11111116e+00, 1.95125000e+02, 1.88996848e-02 ]
      - [ 38., 45., 5.05263138e+00, -1.09388000e+02, -1.30979996e+02,
          1.36363637e+00, 1.71605270e+02, 2.28317901e-02 ]
      - [ 18., 16., 4.16666651e+00, -3.62224998e+01, -4.64883995e+01,
          1.14285719e+00, 2.07166672e+02, 6.31867424e-02 ]
      - [ 11., 15., 5., -3.15557995e+01, -4.41307983e+01, 1.25000000e+00,
          1.20090912e+02, 2.71893628e-02 ]
      - [ 16., 17., 4.87500000e+00, -4.70018005e+01, -5.24053993e+01,
          1.06250000e+00, 2.52812500e+02, 2.28280518e-02 ]
      - [ 8., 9., 2.87500000e+00, -3.03250008e+01, -3.19743004e+01,
          1.12500000e+00, 2.15750000e+02, 2.20927484e-02 ]
      - [ 17., 20., 4., -5.12314987e+01, -6.10294991e+01, 1.17647064e+00,
          2.25294113e+02, 8.68213773e-02 ]
      - [ 8., 10., 4.37500000e+00, -2.92714996e+01, -3.17810993e+01,
          1.11111116e+00, 8.08750000e+01, 3.43728587e-02 ]
      - [ 32., 31., 4.59375000e+00, -8.59784012e+01, -8.09168015e+01,
          1.34782612e+00, 2.90718750e+02, 5.48162013e-02 ]
      - [ 19., 21., 6.26315784e+00, -6.77129974e+01, -6.42818985e+01,
          1.10526311e+00, 1.87842102e+02, 1.61169786e-02 ]
      - [ 11., 9., 4.81818199e+00, -3.71208992e+01, -3.07203007e+01,
          1.12500000e+00, 3.72363647e+02, 1.31799243e-02 ]
      - [ 11., 12., 3.81818175e+00, -3.59169998e+01, -4.17694016e+01, 1.,
          1.99363632e+02, 1.00536719e-02 ]
      - [ 46., 45., 4.50000000e+00, -1.16266998e+02, -1.19463997e+02,
          1.25000000e+00, 2.13326080e+02, 1.08666094e-02 ]
      - [ 21., 21., 3., -5.89496994e+01, -6.66211014e+01, 1.16666663e+00,
          2.21190475e+02, 5.17318323e-02 ]
      - [ 16., 18., 3.87500000e+00, -5.10429001e+01, -5.82783012e+01,
          1.20000005e+00, 1.26625000e+02, 4.01210189e-02 ]
      - [ 40., 44., 4.67500019e+00, -1.09649002e+02, -1.36011993e+02,
          1.29411769e+00, 2.25199997e+02, 6.21431693e-02 ]
      - [ 10., 10., 3.59999990e+00, -2.35354996e+01, -2.07537994e+01, 1.,
          1.14500000e+02, 8.84578563e-03 ]
      - [ 24., 24., 4.41666651e+00, -7.58576965e+01, -6.77667999e+01,
          1.14285719e+00, 1.10625000e+02, 1.53293252e-01 ]
      - [ 4., 4., 3.50000000e+00, -1.44345999e+01, -1.42536001e+01, 1.,
          118., 4.82649030e-03 ]
      - [ 19., 19., 2.68421054e+00, -5.27543983e+01, -5.74044991e+01,
          1.26666665e+00, 2.14894730e+02, 6.18834682e-02 ]
      - [ 38., 39., 3.81578946e+00, -9.66970978e+01, -9.79504013e+01,
          1.18181813e+00, 2.27394730e+02, 5.87889403e-02 ]
      - [ 12., 12., 5.08333349e+00, -4.25287018e+01, -4.07280998e+01, 1.,
          1.16916664e+02, 6.89641014e-02 ]
      - [ 18., 20., 4.33333349e+00, -5.20163002e+01, -5.36531982e+01,
          1.11111116e+00, 1.65333328e+02, 3.46647464e-02 ]
      - [ 21., 22., 5.23809528e+00, -6.33382988e+01, -6.90871964e+01,
          1.10000002e+00, 2.19857147e+02, 5.67908958e-02 ]
      - [ 24., 23., 3.91666675e+00, -6.93920975e+01, -7.41787033e+01,
          1.14999998e+00, 2.13750000e+02, 1.30919525e-02 ]
      - [ 20., 21., 4.50000000e+00, -7.18299026e+01, -7.65490036e+01,
          1.16666663e+00, 2.52399994e+02, 2.77455747e-02 ]
      - [ 6., 6., 6.16666651e+00, -2.53572006e+01, -2.72015991e+01, 1.,
          3.22333344e+02, 4.34757210e-02 ]
      - [ 97., 87., 4.28865957e+00, -2.82088013e+02, -2.80070007e+02,
          1.29850745e+00, 2.01206192e+02, 8.15479904e-02 ]
      - [ 21., 20., 5.47619057e+00, -4.89114990e+01, -5.90164986e+01,
          1.05263162e+00, 1.65333328e+02, 1.27559826e-01 ]
      - [ 16., 20., 3.56250000e+00, -4.97722015e+01, -6.46664963e+01,
          1.17647064e+00, 1.93500000e+02, 5.19305542e-02 ]
      - [ 36., 34., 4.47222233e+00, -1.18167999e+02, -1.15676003e+02,
          1.21428573e+00, 2.08611115e+02, 6.01563640e-02 ]
      - [ 47., 46., 4.51063824e+00, -1.45223999e+02, -1.63056000e+02,
          1.31428576e+00, 1.74127655e+02, 7.40382895e-02 ]
      - [ 82., 79., 3.45121956e+00, -2.55160004e+02, -2.49639008e+02,
          1.38596487e+00, 1.71280487e+02, 3.10096890e-02 ]
      - [ 30., 34., 3.90000010e+00, -9.33862000e+01, -1.17321999e+02,
          1.09677422e+00, 1.48866669e+02, 3.68841626e-02 ]
      - [ 40., 37., 4.05000019e+00, -1.27132004e+02, -1.19731003e+02,
          1.32142854e+00, 1.93949997e+02, 4.44405600e-02 ]
      - [ 33., 31., 3.87878799e+00, -9.56156006e+01, -9.96922989e+01,
          1.34782612e+00, 2.09484848e+02, 2.07086559e-02 ]
      - [ 48., 50., 4.18750000e+00, -1.59753006e+02, -1.54975998e+02,
          1.11111116e+00, 1.73833328e+02, 7.41082504e-02 ]
      - [ 22., 26., 3.40909100e+00, -6.72699966e+01, -8.04047012e+01,
          1.13043475e+00, 1.83909088e+02, 2.03693938e-02 ]
      - [ 21., 20., 3.90476179e+00, -6.21535988e+01, -5.98726997e+01,
          1.17647064e+00, 2.97952393e+02, 2.65497062e-02 ]
      - [ 38., 36., 5.10526323e+00, -1.35479996e+02, -1.19348999e+02,
          1.12500000e+00, 2.23210526e+02, 2.62994394e-02 ]
      - [ 32., 33., 4.21875000e+00, -1.12570000e+02, -1.24611000e+02,
          1.37500000e+00, 2.62062500e+02, 4.72417809e-02 ]
      - [ 33., 29., 4.54545450e+00, -1.02869003e+02, -9.68654022e+01,
          1.20833337e+00, 3.59606049e+02, 2.70332396e-02 ]
      - [ 30., 34., 5.80000019e+00, -9.29353027e+01, -1.04282997e+02,
          1.21428573e+00, 2.22766663e+02, 4.42113951e-02 ]
      - [ 30., 30., 4.56666660e+00, -8.50726013e+01, -1.00563004e+02,
          1.11111116e+00, 1.91899994e+02, 1.97024625e-02 ]
      - [ 51., 50., 5.09803915e+00, -1.53059006e+02, -1.55320007e+02,
          1.21951222e+00, 2.09784317e+02, 4.00187597e-02 ]
      - [ 23., 25., 4.43478251e+00, -7.83554993e+01, -7.52945023e+01,
          1.19047618e+00, 2.00347824e+02, 3.33749689e-02 ]
      - [ 29., 24., 4.44827604e+00, -8.70770035e+01, -7.23277969e+01,
          1.14285719e+00, 2.66172424e+02, 2.11577602e-02 ]
      - [ 44., 44., 4.50000000e+00, -1.35373993e+02, -1.22542999e+02,
          1.25714290e+00, 1.82522720e+02, 2.83692759e-02 ]
      - [ 24., 26., 4.62500000e+00, -8.53938980e+01, -8.68286972e+01,
          1.08333337e+00, 1.95125000e+02, 1.88996848e-02 ]
      - [ 22., 20., 4.86363649e+00, -5.06906013e+01, -6.54296036e+01,
          1.05263162e+00, 2.94045441e+02, 5.42335911e-03 ]
      - [ 42., 49., 5., -1.21114998e+02, -1.31832001e+02, 1.22500002e+00,
          1.90809525e+02, 1.63146500e-02 ]
      - [ 47., 50., 4.93617010e+00, -1.50824005e+02, -1.55281998e+02,
          1.31578946e+00, 1.91617020e+02, 2.32977793e-02 ]
      - [ 31., 28., 4.09677410e+00, -7.34866028e+01, -7.84349976e+01,
          1.03703701e+00, 1.34838715e+02, 3.35735753e-02 ]
      - [ 54., 52., 5.01851845e+00, -1.73371994e+02, -1.70673004e+02,
          1.36842108e+00, 2.27925919e+02, 4.14914563e-02 ]
      - [ 16., 15., 4.87500000e+00, -4.70018005e+01, -4.03345985e+01, 1.,
          2.52812500e+02, 2.28280518e-02 ]
      - [ 31., 31., 4.70967722e+00, -9.51753998e+01, -7.86815033e+01,
          1.24000001e+00, 1.68387100e+02, 1.36762774e-02 ]
      - [ 45., 42., 4.42222214e+00, -1.33932999e+02, -1.26197998e+02,
          1.16666663e+00, 2.11888885e+02, 1.97809171e-02 ]
      - [ 34., 41., 4.52941179e+00, -8.74957962e+01, -1.03282997e+02,
          1.17142856e+00, 1.53823532e+02, 4.35223579e-02 ]
      - [ 15., 17., 3.33333325e+00, -5.53181000e+01, -4.01692009e+01,
          1.06250000e+00, 1.64666672e+02, 1.90575924e-02 ]
      - [ 32., 27., 4.37500000e+00, -8.71880035e+01, -8.75996017e+01,
          1.08000004e+00, 2.29843750e+02, 4.08471450e-02 ]
      - [ 24., 25., 3.91666675e+00, -8.04142990e+01, -7.84964981e+01,
          1.13636363e+00, 2.46333328e+02, 4.28159684e-02 ]
      - [ 28., 28., 3.64285707e+00, -8.11320038e+01, -8.05149994e+01,
          1.07692313e+00, 1.40107147e+02, 1.28076170e-02 ]
      - [ 53., 42., 4.37735844e+00, -1.35100998e+02, -1.30630997e+02,
          1.27272725e+00, 2.73132080e+02, 4.48240452e-02 ]
      - [ 32., 29., 4.59375000e+00, -8.59784012e+01, -7.79957962e+01,
          1.26086962e+00, 2.90718750e+02, 5.48162013e-02 ]
      - [ 19., 19., 6.26315784e+00, -6.77129974e+01, -6.76893997e+01,
          1.05555558e+00, 1.87842102e+02, 1.61169786e-02 ]
      - [ 45., 43., 4.84444427e+00, -1.31630005e+02, -1.22616997e+02,
          1.30303025e+00, 2.58622223e+02, 2.36231610e-02 ]
      - [ 11., 8., 4.81818199e+00, -3.71208992e+01, -3.26679001e+01, 1.,
          3.72363647e+02, 1.31799243e-02 ]
      - [ 25., 24., 5.48000002e+00, -7.00252991e+01, -6.78877029e+01,
          1.04347825e+00, 1.11320000e+02, 5.77371791e-02 ]
      - [ 57., 51., 4.49122810e+00, -1.81391006e+02, -1.54158005e+02,
          1.27499998e+00, 2.28877197e+02, 5.07011153e-02 ]
      - [ 32., 29., 4.96875000e+00, -1.00837997e+02, -9.58496017e+01,
          1.03571427e+00, 2.19156250e+02, 3.82090546e-02 ]
      - [ 50., 48., 4.69999981e+00, -1.39108994e+02, -1.34479004e+02,
          1.17073166e+00, 2.20740005e+02, 1.13219813e-01 ]
      - [ 17., 18., 5.17647076e+00, -3.69933014e+01, -4.17346001e+01,
          1.12500000e+00, 3.56823517e+02, 1.18728146e-01 ]
      - [ 46., 46., 4.50000000e+00, -1.16266998e+02, -1.23731003e+02,
          1.24324322e+00, 2.13326080e+02, 1.08666094e-02 ]
      - [ 23., 24., 4.52173901e+00, -6.85089035e+01, -7.11736984e+01,
          1.04347825e+00, 1.55086960e+02, 1.65183261e-01 ]
      - [ 22., 17., 3.50000000e+00, -6.89616013e+01, -5.01470985e+01,
          1.13333333e+00, 1.60772720e+02, 4.60807458e-02 ]
      - [ 16., 13., 3.87500000e+00, -5.10429001e+01, -4.57681999e+01,
          1.08333337e+00, 1.26625000e+02, 4.01210189e-02 ]
      - [ 41., 43., 3.85365844e+00, -1.12115997e+02, -1.31503006e+02,
          1.30303025e+00, 1.86195129e+02, 5.93755357e-02 ]
      - [ 24., 23., 4.41666651e+00, -7.58576965e+01, -6.84889984e+01,
          1.21052635e+00, 1.10625000e+02, 1.53293252e-01 ]
      - [ 17., 22., 5.05882359e+00, -5.23889008e+01, -5.03939018e+01,
          1.04761910e+00, 1.10529411e+02, 1.84529468e-01 ]
      - [ 23., 22., 4.21739149e+00, -7.20154037e+01, -5.84724998e+01,
          1.10000002e+00, 1.81260864e+02, 1.17567651e-01 ]
      - [ 25., 22., 4.40000010e+00, -8.14712982e+01, -7.40423965e+01,
          1.04761910e+00, 2.77760010e+02, 1.93242207e-02 ]
      - [ 17., 15., 4.35294104e+00, -5.13889999e+01, -4.88628998e+01, 1.,
          1.78882355e+02, 3.10964510e-02 ]
      - [ 29., 29., 3.86206889e+00, -9.84926987e+01, -8.57260971e+01,
          1.11538458e+00, 1.64103455e+02, 5.86772040e-02 ]
      - [ 23., 19., 4.13043499e+00, -6.96452026e+01, -5.93978004e+01,
          1.11764705e+00, 2.21173920e+02, 4.06104662e-02 ]
      - [ 40., 40., 4.37500000e+00, -1.15545998e+02, -1.12531998e+02,
          1.21212125e+00, 1.73074997e+02, 1.38991982e-01 ]
      - [ 28., 28., 4.85714293e+00, -8.11480026e+01, -7.95242996e+01,
          1.16666663e+00, 1.66035721e+02, 6.85233325e-02 ]
      - [ 13., 15., 4.30769253e+00, -5.06021996e+01, -6.20265999e+01,
          1.07142854e+00, 1.43307693e+02, 5.53267375e-02 ]
      - [ 30., 30., 4.53333330e+00, -6.98301010e+01, -8.91135025e+01,
          1.07142854e+00, 1.25833336e+02, 3.33996899e-02 ]
      - [ 15., 15., 5., -4.57443008e+01, -3.71399994e+01, 1.07142854e+00,
          2.11466660e+02, 1.40331730e-01 ]
      - [ 56., 53., 4.28571415e+00, -1.56005005e+02, -1.46225006e+02,
          1.32500005e+00, 2.09464279e+02, 6.52266964e-02 ]
      - [ 17., 17., 3.41176462e+00, -4.82254982e+01, -4.63959999e+01,
          1.21428573e+00, 2.78882355e+02, 1.66399498e-02 ]
      - [ 34., 33., 4.20588255e+00, -8.95795975e+01, -9.23308029e+01,
          1.17857146e+00, 1.78058823e+02, 5.89894131e-02 ]
      - [ 40., 35., 3.65000010e+00, -1.04703003e+02, -1.10434998e+02,
          1.25000000e+00, 2.39100006e+02, 5.93813658e-02 ]
      - [ 19., 16., 3.26315784e+00, -6.10545006e+01, -5.43611984e+01,
          1.06666672e+00, 2.01368423e+02, 3.77151892e-02 ]
      - [ 22., 25., 4.18181801e+00, -5.19858017e+01, -7.36723022e+01,
          1.31578946e+00, 1.88909088e+02, 1.60237297e-01 ]
      - [ 21., 22., 3.19047618e+00, -5.80951996e+01, -6.72345963e+01,
          1.15789473e+00, 2.07142853e+02, 6.01219498e-02 ]
      - [ 34., 31., 3.58823538e+00, -1.11747002e+02, -1.01308998e+02,
          1.19230771e+00, 2.16470581e+02, 4.63455170e-02 ]
      - [ 47., 45., 4.19148922e+00, -1.54345001e+02, -1.45490005e+02,
          1.21621621e+00, 1.52148941e+02, 8.29022378e-02 ]
      - [ 49., 48., 4.34693861e+00, -1.48106003e+02, -1.34559998e+02,
          1.23076928e+00, 1.91061218e+02, 1.16115190e-01 ]
      - [ 24., 26., 4.04166651e+00, -8.19669037e+01, -9.08367996e+01,
          1.18181813e+00, 1.54791672e+02, 6.29996583e-02 ]
      - [ 37., 31., 4.16216230e+00, -1.21134003e+02, -1.21287003e+02,
          1.06896555e+00, 1.62729736e+02, 1.16312698e-01 ]
      - [ 53., 55., 4.24528313e+00, -1.67070007e+02, -1.63147995e+02,
          1.27906978e+00, 2.08735855e+02, 9.47896689e-02 ]
      - [ 28., 28., 4.39285707e+00, -7.35672989e+01, -6.34285011e+01, 1.,
          2.11142853e+02, 6.15171827e-02 ]
      - [ 17., 15., 4.11764717e+00, -5.53936005e+01, -4.42178993e+01,
          1.07142854e+00, 1.79176468e+02, 4.86792251e-02 ]
      - [ 47., 42., 4.51063824e+00, -1.45223999e+02, -1.53975998e+02,
          1.23529410e+00, 1.74127655e+02, 7.40382895e-02 ]
      - [ 82., 81., 3.45121956e+00, -2.55160004e+02, -2.50005997e+02,
          1.37288141e+00, 1.71280487e+02, 3.10096890e-02 ]
      - [ 20., 18., 4.50000000e+00, -6.73374023e+01, -6.97001038e+01,
          1.12500000e+00, 2.43550003e+02, 1.23418465e-01 ]
      - [ 25., 29., 4.19999981e+00, -8.46005020e+01, -9.21591034e+01,
          1.20833337e+00, 1.37160004e+02, 2.18500346e-02 ]
      - [ 39., 34., 4.58974361e+00, -1.12529999e+02, -9.08354034e+01,
          1.13333333e+00, 2.44205124e+02, 9.82454792e-02 ]
      - [ 38., 32., 3.84210515e+00, -9.35654984e+01, -9.11857986e+01,
          1.18518519e+00, 2.08236847e+02, 1.70660838e-02 ]
      - [ 30., 31., 3.90000010e+00, -9.33862000e+01, -1.02719002e+02,
          1.19230771e+00, 1.48866669e+02, 3.68841626e-02 ]
      - [ 23., 19., 4.04347849e+00, -5.53394012e+01, -5.32817993e+01,
          1.18750000e+00, 3.79304352e+02, 3.05581074e-02 ]
      - [ 16., 17., 4.50000000e+00, -5.65242004e+01, -5.10872002e+01, 1.,
          1.11062500e+02, 5.38036190e-02 ]
      - [ 24., 26., 4.37500000e+00, -6.09259987e+01, -5.45208015e+01,
          1.23809528e+00, 1.91875000e+02, 7.19597330e-03 ]
      - [ 25., 26., 4.92000008e+00, -8.59804993e+01, -8.11473999e+01, 1.,
          1.23680000e+02, 5.38151264e-02 ]
      - [ 18., 15., 3.77777767e+00, -5.42481003e+01, -4.55003014e+01,
          1.07142854e+00, 2.41777771e+02, 1.90778658e-01 ]
      - [ 30., 27., 4.83333349e+00, -7.67300034e+01, -8.32151031e+01,
          1.08000004e+00, 1.56433334e+02, 1.92427021e-02 ]
      - [ 19., 16., 3.78947377e+00, -5.21091003e+01, -4.62442017e+01,
          1.06666672e+00, 1.69421051e+02, 1.44336158e-02 ]
      - [ 40., 37., 4.05000019e+00, -1.27132004e+02, -1.24106003e+02,
          1.27586210e+00, 1.93949997e+02, 4.44405600e-02 ]
      - [ 38., 33., 4.42105246e+00, -7.58693008e+01, -8.50936966e+01,
          1.37500000e+00, 2.65026306e+02, 1.67700034e-02 ]
      - [ 31., 28., 5.38709688e+00, -7.13778992e+01, -7.38457031e+01,
          1.27272725e+00, 2.41161285e+02, 1.93551145e-02 ]
      - [ 24., 23., 4.91666651e+00, -5.89061012e+01, -5.57701988e+01,
          1.09523809e+00, 2.92458344e+02, 1.17817996e-02 ]
      - [ 34., 33., 4.61764717e+00, -9.51600037e+01, -9.47351990e+01,
          1.26923072e+00, 2.26323532e+02, 3.76399793e-02 ]
      - [ 28., 25., 5.03571415e+00, -6.81197968e+01, -7.68724976e+01,
          1.04166663e+00, 1.86785721e+02, 2.67308038e-02 ]
      - [ 33., 30., 4.21212101e+00, -1.01257004e+02, -9.90382004e+01,
          1.11111116e+00, 2.10969696e+02, 4.48343232e-02 ]
      - [ 27., 24., 4., -7.51774979e+01, -7.21197968e+01, 1.33333337e+00,
          2.56074066e+02, 1.66926719e-02 ]
      - [ 34., 32., 4.88235283e+00, -1.06109001e+02, -9.03965988e+01,
          1.06666672e+00, 2.31970581e+02, 2.30283700e-02 ]
      - [ 28., 26., 4.21428585e+00, -6.68237991e+01, -6.60563965e+01,
          1.18181813e+00, 2.67285706e+02, 1.53659331e-02 ]
      - [ 22., 23., 3.40909100e+00, -6.72699966e+01, -6.94088974e+01,
          1.21052635e+00, 1.83909088e+02, 2.03693938e-02 ]
      - [ 23., 23., 5.34782600e+00, -9.19169998e+01, -8.19682999e+01,
          1.04545450e+00, 1.25565216e+02, 6.08299077e-02 ]
      - [ 19., 15., 3.84210515e+00, -5.73619003e+01, -5.13675003e+01, 1.,
          2.20421051e+02, 7.43999407e-02 ]
      - [ 14., 14., 3.57142854e+00, -4.32882996e+01, -4.17182007e+01,
          1.16666663e+00, 3.50142853e+02, 7.99201336e-03 ]
      - [ 23., 21., 4.30434799e+00, -7.97137985e+01, -7.71779022e+01,
          1.16666663e+00, 1.75565216e+02, 5.04503138e-02 ]
      - [ 27., 25., 4.55555534e+00, -7.67012024e+01, -6.56940002e+01,
          1.13636363e+00, 2.71296295e+02, 1.74732395e-02 ]
      - [ 26., 26., 3.96153855e+00, -8.35667038e+01, -7.28519974e+01,
          1.13043475e+00, 1.39846161e+02, 3.92475761e-02 ]
      - [ 19., 19., 3.42105269e+00, -5.72450981e+01, -5.32846985e+01,
          1.11764705e+00, 1.61684204e+02, 3.83830182e-02 ]
      - [ 16., 19., 4.93750000e+00, -5.35494995e+01, -6.02322998e+01, 1.,
          1.69625000e+02, 1.01731181e-01 ]
      - [ 26., 24., 5.07692289e+00, -5.78981018e+01, -6.01343994e+01,
          1.09090912e+00, 2.04192307e+02, 2.10145507e-02 ]
      - [ 18., 18., 3.44444442e+00, -6.05388985e+01, -6.26123009e+01,
          1.12500000e+00, 2.03444443e+02, 1.45250475e-02 ]
      - [ 21., 21., 3.90476179e+00, -6.21535988e+01, -6.63029022e+01,
          1.23529410e+00, 2.97952393e+02, 2.65497062e-02 ]
      - [ 32., 29., 4.21875000e+00, -1.12570000e+02, -1.07674004e+02,
          1.26086962e+00, 2.62062500e+02, 4.72417809e-02 ]
      - [ 30., 26., 5.80000019e+00, -9.29353027e+01, -8.21253967e+01,
          1.08333337e+00, 2.22766663e+02, 4.42113951e-02 ]
      - [ 57., 55., 4.17543840e+00, -1.78281006e+02, -1.75841003e+02,
          1.30952382e+00, 2.66245605e+02, 4.03692871e-02 ]
      - [ 51., 50., 5.09803915e+00, -1.53059006e+02, -1.35326004e+02,
          1.21951222e+00, 2.09784317e+02, 4.00187597e-02 ]
      - [ 60., 53., 4.98333311e+00, -1.63824997e+02, -1.64296005e+02,
          1.29268289e+00, 2.65833344e+02, 1.71032865e-02 ]
      - [ 43., 45., 4.72093010e+00, -1.26452003e+02, -1.20358002e+02,
          1.21621621e+00, 1.40813950e+02, 3.31505500e-02 ]
      - [ 50., 52., 4.98000002e+00, -1.55669998e+02, -1.58095001e+02,
          1.23809528e+00, 1.84339996e+02, 2.62656324e-02 ]
      - [ 35., 32., 4.37142849e+00, -9.23649979e+01, -8.84448013e+01,
          1.18518519e+00, 2.28714279e+02, 1.05362982e-02 ]
      - [ 24., 25., 4.62500000e+00, -8.53938980e+01, -8.85078964e+01,
          1.04166663e+00, 1.95125000e+02, 1.88996848e-02 ]
      - [ 29., 31., 4.41379309e+00, -8.04306030e+01, -8.16194000e+01,
          1.10714281e+00, 1.84482758e+02, 1.87176429e-02 ]
      - [ 43., 42., 4.27906990e+00, -9.65103989e+01, -1.09570999e+02,
          1.44827580e+00, 2.58976746e+02, 9.66832973e-03 ]
      - [ 14., 15., 5., -5.09378014e+01, -5.01458015e+01, 1.07142854e+00,
          1.11285713e+02, 9.57751423e-02 ]
      - [ 37., 37., 3.78378367e+00, -1.05025002e+02, -1.13915001e+02,
          1.23333335e+00, 2.06081085e+02, 4.15375046e-02 ]
      - [ 38., 44., 5.05263138e+00, -1.09388000e+02, -1.21796997e+02,
          1.25714290e+00, 1.71605270e+02, 2.28317901e-02 ]
      - [ 47., 50., 4.93617010e+00, -1.50824005e+02, -1.47246002e+02,
          1.21951222e+00, 1.91617020e+02, 2.32977793e-02 ]
      - [ 65., 68., 4.81538439e+00, -1.68761002e+02, -1.78393997e+02,
          1.51111114e+00, 1.89492310e+02, 7.37851858e-02 ]
      - [ 22., 25., 5.09090900e+00, -6.40240021e+01, -6.91174011e+01,
          1.04166663e+00, 1.66181824e+02, 1.00045195e-02 ]
      - [ 43., 43., 4.81395340e+00, -1.26512001e+02, -1.24709999e+02,
          1.38709676e+00, 1.89162796e+02, 1.67454015e-02 ]
      - [ 41., 40., 4.34146357e+00, -1.33574997e+02, -1.25333000e+02,
          1.17647064e+00, 1.36048782e+02, 1.88190024e-02 ]
      - [ 39., 35., 4.07692289e+00, -8.89421997e+01, -1.05486000e+02,
          1.16666663e+00, 251., 5.39180450e-02 ]
      - [ 34., 32., 4.29411745e+00, -9.93574982e+01, -1.03280998e+02,
          1.27999997e+00, 3.28558838e+02, 3.88559140e-02 ]
      - [ 49., 49., 4.42857122e+00, -1.47669006e+02, -1.48151993e+02,
          1.39999998e+00, 2.64571442e+02, 6.34508654e-02 ]
      - [ 55., 55., 4.61818171e+00, -1.42296005e+02, -1.46110001e+02,
          1.30952382e+00, 2.33763641e+02, 8.52576718e-02 ]
      - [ 43., 46., 5., -1.08977997e+02, -1.20907997e+02, 1.21052635e+00,
          1.77930237e+02, 1.98205188e-02 ]
      - [ 18., 18., 3.94444442e+00, -5.19636993e+01, -5.28230019e+01, 1.,
          2.27222229e+02, 1.15955137e-02 ]
      - [ 17., 19., 4., -5.12314987e+01, -6.17552986e+01, 1.11764705e+00,
          2.25294113e+02, 8.68213773e-02 ]
      - [ 18., 17., 4.38888884e+00, -5.23474007e+01, -4.92794991e+01,
          1.06250000e+00, 1.77611115e+02, 6.73625767e-02 ]
      - [ 32., 36., 3.84375000e+00, -9.81945038e+01, -1.09387001e+02,
          1.33333337e+00, 1.91625000e+02, 4.66105640e-02 ]
      - [ 24., 24., 4.37500000e+00, -8.20246964e+01, -7.15111008e+01,
          1.09090912e+00, 1.09708336e+02, 1.77245494e-02 ]
      - [ 40., 38., 4.27500010e+00, -1.12308998e+02, -1.07744003e+02,
          1.08571434e+00, 2.11100006e+02, 5.09729758e-02 ]
      - [ 21., 24., 4.09523821e+00, -7.08094025e+01, -7.07892990e+01,
          1.26315784e+00, 1.82809525e+02, 9.08189341e-02 ]
      - [ 33., 32., 4.84848499e+00, -1.08806999e+02, -1.07360001e+02,
          1.14285719e+00, 1.33727280e+02, 5.55658080e-02 ]
      - [ 23., 22., 4.17391300e+00, -6.22985992e+01, -5.74243011e+01, 1.,
          2.23565216e+02, 1.46773662e-02 ]
      - [ 68., 63., 4., -1.56763000e+02, -1.56074997e+02, 1.34042549e+00,
          2.36205887e+02, 2.61214208e-02 ]
      - [ 34., 32., 4.52941179e+00, -8.74957962e+01, -9.02789993e+01,
          1.03225803e+00, 1.53823532e+02, 4.35223579e-02 ]
      - [ 79., 79., 4.48101282e+00, -2.15938004e+02, -2.17899994e+02,
          1.27419353e+00, 1.82025314e+02, 6.08148575e-02 ]
      - [ 41., 43., 4.21951199e+00, -1.26667000e+02, -1.19320000e+02,
          1.30303025e+00, 1.44390244e+02, 1.11774430e-02 ]
      - [ 57., 62., 3.71929836e+00, -1.68401993e+02, -1.57852997e+02,
          1.21568632e+00, 1.81912277e+02, 2.90951114e-02 ]
      - [ 33., 30., 5.03030300e+00, -1.06549004e+02, -8.94255981e+01,
          1.11111116e+00, 2.65636353e+02, 5.31283058e-02 ]
      - [ 29., 30., 4.79310322e+00, -7.36389008e+01, -8.10435028e+01,
          1.11111116e+00, 1.96689651e+02, 3.01474892e-02 ]
      - [ 20., 18., 3.25000000e+00, -5.91557999e+01, -6.04771996e+01,
          1.12500000e+00, 1.40500000e+02, 4.01046798e-02 ]
      - [ 25., 23., 3.07999992e+00, -8.81628036e+01, -7.56794968e+01,
          1.35294116e+00, 3.11880005e+02, 8.56055841e-02 ]
      - [ 51., 47., 5.35294104e+00, -1.60358994e+02, -1.45882996e+02,
          1.17499995e+00, 1.71784317e+02, 2.81040762e-02 ]
      - [ 39., 38., 4.51282072e+00, -1.09386002e+02, -1.07934998e+02,
          1.40740740e+00, 3.03692322e+02, 4.89558801e-02 ]
      - [ 52., 49., 4.55769253e+00, -1.31444000e+02, -1.26121002e+02,
          1.36111116e+00, 2.56711548e+02, 1.95183177e-02 ]
      - [ 19., 20., 6.26315784e+00, -6.77129974e+01, -6.45307999e+01,
          1.05263162e+00, 1.87842102e+02, 1.61169786e-02 ]
      - [ 11., 9., 4.81818199e+00, -3.71208992e+01, -3.41330986e+01,
          1.12500000e+00, 3.72363647e+02, 1.31799243e-02 ]
      - [ 19., 17., 3.15789485e+00, -4.56097984e+01, -4.45444984e+01,
          1.13333333e+00, 2.58947357e+02, 1.54299717e-02 ]
      - [ 36., 38., 4.47222233e+00, -9.94040985e+01, -1.11875999e+02,
          1.26666665e+00, 2.31444443e+02, 4.84097153e-02 ]
      - [ 44., 39., 4.52272749e+00, -1.34003006e+02, -1.10117996e+02,
          1.34482753e+00, 2.17909088e+02, 2.58648377e-02 ]
      - [ 36., 31., 4.47222233e+00, -7.71998978e+01, -7.80530014e+01,
          1.24000001e+00, 2.52388885e+02, 3.54356952e-02 ]
      - [ 83., 78., 4.15662670e+00, -2.08619003e+02, -2.21604996e+02,
          1.50000000e+00, 2.56722900e+02, 3.90079468e-02 ]
      - [ 44., 40., 4.77272749e+00, -1.16825996e+02, -1.08092003e+02,
          1.21212125e+00, 2.60545441e+02, 1.38273994e-02 ]
      - [ 15., 13., 3.26666665e+00, -5.49695015e+01, -4.37913017e+01, 1.,
          1.45133331e+02, 1.05105601e-01 ]
      - [ 17., 16., 4.70588255e+00, -4.31708984e+01, -4.03611984e+01,
          1.06666672e+00, 2.02235291e+02, 3.53422426e-02 ]
      - [ 52., 51., 4.73076916e+00, -1.24874001e+02, -1.33070999e+02,
          1.45714283e+00, 2.25076920e+02, 4.27209213e-02 ]
      - [ 45., 43., 4.17777777e+00, -1.32022995e+02, -1.26668999e+02,
          1.22857141e+00, 1.95044449e+02, 2.32907906e-02 ]
      - [ 52., 55., 5.07692289e+00, -1.40957001e+02, -1.49050003e+02,
          1.25000000e+00, 1.73846161e+02, 4.97170538e-02 ]
      - [ 31., 27., 4.74193525e+00, -7.40742035e+01, -6.38503990e+01,
          1.17391300e+00, 2.66161285e+02, 3.83383967e-02 ]
      - [ 32., 28., 4.71875000e+00, -8.55660019e+01, -9.29682999e+01,
          1.07692313e+00, 2.08906250e+02, 2.71996129e-02 ]
      - [ 16., 15., 4.50000000e+00, -5.74337006e+01, -5.07938995e+01,
          1.07142854e+00, 1.96937500e+02, 1.09626707e-02 ]
      - [ 2., 2., 7., -8.56632042e+00, -6.94426012e+00, 1.,
          5.00000000e-01, 3.27102803e-02 ]
      - [ 46., 42., 4.50000000e+00, -1.16266998e+02, -1.16125000e+02,
          1.16666663e+00, 2.13326080e+02, 1.08666094e-02 ]
      - [ 29., 31., 4.13793087e+00, -9.13024979e+01, -8.91505966e+01,
          1.19230771e+00, 1.86586212e+02, 5.81649318e-02 ]
      - [ 70., 69., 4.09999990e+00, -2.24173996e+02, -2.05587997e+02,
          1.30188680e+00, 1.84242859e+02, 5.93539663e-02 ]
      - [ 44., 38., 4.38636351e+00, -1.18973999e+02, -9.83590012e+01,
          1.11764705e+00, 2.56954559e+02, 4.21028994e-02 ]
      - [ 37., 36., 4.35135126e+00, -1.20009003e+02, -1.01344002e+02,
          1.12500000e+00, 2.12702698e+02, 2.43923124e-02 ]
      - [ 16., 16., 5.56250000e+00, -6.48561020e+01, -5.89281006e+01, 1.,
          1.73500000e+02, 2.10775156e-02 ]
      - [ 21., 20., 3., -5.89496994e+01, -5.79832001e+01, 1.11111116e+00,
          2.21190475e+02, 5.17318323e-02 ]
      - [ 19., 18., 3.78947377e+00, -4.61186981e+01, -4.26899986e+01,
          1.12500000e+00, 2.19526321e+02, 4.47753556e-02 ]
      - [ 26., 24., 4.03846169e+00, -9.23180008e+01, -6.95615005e+01,
          1.14285719e+00, 2.58730774e+02, 9.01818722e-02 ]
      - [ 17., 16., 4.47058821e+00, -5.22759018e+01, -4.81777000e+01, 1.,
          2.17529419e+02, 4.69914898e-02 ]
      - [ 18., 21., 4.72222233e+00, -4.42622986e+01, -4.35097008e+01,
          1.31250000e+00, 158., 8.53650086e-03 ]
      - [ 37., 40., 4.21621609e+00, -1.27889000e+02, -1.07653999e+02,
          1.17647064e+00, 1.35486481e+02, 4.86744754e-02 ]
      - [ 16., 17., 3.87500000e+00, -5.10429001e+01, -5.13498001e+01,
          1.21428573e+00, 1.26625000e+02, 4.01210189e-02 ]
      - [ 20., 21., 3.59999990e+00, -5.52097015e+01, -5.90345993e+01,
          1.23529410e+00, 270., 2.21040286e-02 ]
      - [ 41., 46., 3.85365844e+00, -1.12115997e+02, -1.20359001e+02,
          1.35294116e+00, 1.86195129e+02, 5.93755357e-02 ]
      - [ 73., 72., 3.39726019e+00, -2.50848007e+02, -2.34016998e+02,
          1.53191495e+00, 2.05986298e+02, 9.21146125e-02 ]
      - [ 40., 39., 4.67500019e+00, -1.09649002e+02, -1.07734001e+02,
          1.18181813e+00, 2.25199997e+02, 6.21431693e-02 ]
      - [ 13., 13., 4.15384626e+00, -4.68769989e+01, -4.73380013e+01,
          1.08333337e+00, 1.91153839e+02, 3.86642888e-02 ]
      - [ 15., 17., 5.46666670e+00, -4.45475006e+01, -4.34930000e+01, 1.,
          2.35533340e+02, 2.03285404e-02 ]
      - [ 20., 18., 4.75000000e+00, -5.83742981e+01, -4.60989990e+01,
          1.05882359e+00, 2.03800003e+02, 2.88566798e-02 ]
      - [ 64., 53., 3.79687500e+00, -1.96697006e+02, -1.94860992e+02,
          1.32500005e+00, 2.01062500e+02, 1.18796475e-01 ]
      - [ 29., 26., 4., -9.72531967e+01, -8.78526993e+01, 1.13043475e+00,
          1.79793106e+02, 8.70410874e-02 ]
      - [ 24., 19., 3.91666675e+00, -7.74815979e+01, -5.66595993e+01,
          1.11764705e+00, 2.17750000e+02, 7.99982026e-02 ]
      - [ 19., 19., 3.63157892e+00, -6.61750031e+01, -6.52667007e+01,
          1.05555558e+00, 1.92578949e+02, 3.89755666e-02 ]
      - [ 17., 16., 3.76470590e+00, -5.01682014e+01, -5.48227005e+01,
          1.14285719e+00, 2.02294113e+02, 1.42199412e-01 ]
      - [ 39., 34., 3.56410265e+00, -1.31016006e+02, -1.13087997e+02,
          1.13333333e+00, 2.18641022e+02, 7.15182051e-02 ]
      - [ 39., 37., 4.10256433e+00, -1.25022003e+02, -1.26644997e+02,
          1.12121212e+00, 1.79897430e+02, 4.33762819e-02 ]
      - [ 29., 28., 3.48275852e+00, -9.53664017e+01, -1.11542999e+02,
          1.39999998e+00, 1.95413788e+02, 5.67237027e-02 ]
      - [ 19., 20., 5.36842108e+00, -5.92414017e+01, -6.03440018e+01, 1.,
          1.91473679e+02, 5.76514378e-02 ]
      - [ 29., 26., 3.72413802e+00, -9.20425034e+01, -9.93247986e+01,
          1.18181813e+00, 2.15482758e+02, 5.26369140e-02 ]
      - [ 47., 41., 4.65957451e+00, -1.51156998e+02, -1.48828995e+02,
          1.10810816e+00, 1.83234039e+02, 4.92965616e-02 ]
      - [ 57., 51., 4.35087729e+00, -1.66013000e+02, -1.60850006e+02,
          1.41666663e+00, 2.11824554e+02, 3.82136256e-02 ]
      - [ 17., 20., 3.94117641e+00, -6.50643005e+01, -6.11726990e+01, 1.,
          1.84176468e+02, 7.78782815e-02 ]
      - [ 37., 36., 4.67567587e+00, -1.26247002e+02, -1.34709000e+02,
          1.09090912e+00, 1.18513512e+02, 1.23565972e-01 ]
      - [ 19., 18., 2.68421054e+00, -5.27543983e+01, -5.89062996e+01,
          1.12500000e+00, 2.14894730e+02, 6.18834682e-02 ]
      - [ 13., 14., 3.92307687e+00, -6.32043991e+01, -6.01940002e+01, 1.,
          1.53769226e+02, 4.35285047e-02 ]
      - [ 27., 26., 4.37037039e+00, -8.32161026e+01, -8.87817993e+01,
          1.18181813e+00, 2.38259262e+02, 1.71893254e-01 ]
      - [ 21., 19., 4.33333349e+00, -6.00428009e+01, -4.75979996e+01, 1.,
          2.21857147e+02, 6.56917095e-02 ]
      - [ 32., 34., 3.75000000e+00, -1.19981003e+02, -1.36427002e+02,
          1.25925922e+00, 1.55062500e+02, 1.45819858e-01 ]
      - [ 17., 16., 4.35294104e+00, -5.13889999e+01, -5.02173004e+01, 1.,
          1.78882355e+02, 3.10964510e-02 ]
      - [ 27., 28., 4.59259272e+00, -9.01044998e+01, -7.88520966e+01,
          1.16666663e+00, 1.67444443e+02, 9.53623205e-02 ]
      - [ 22., 23., 3.54545450e+00, -6.78777008e+01, -1.02040001e+02,
          1.04545450e+00, 1.08681816e+02, 1.05207108e-01 ]
      - [ 29., 30., 3.86206889e+00, -9.84926987e+01, -9.35399017e+01,
          1.15384614e+00, 1.64103455e+02, 5.86772040e-02 ]
      - [ 28., 22., 4.89285707e+00, -8.34514999e+01, -7.49655991e+01,
          1.04761910e+00, 2.46285721e+02, 1.94831401e-01 ]
      - [ 26., 27., 3.50000000e+00, -8.63757019e+01, -8.78872986e+01,
          1.28571427e+00, 1.89730774e+02, 2.53540538e-02 ]
      - [ 28., 32., 3.42857146e+00, -8.56793976e+01, -9.00880966e+01,
          1.23076928e+00, 1.70535721e+02, 2.82586161e-02 ]
      - [ 14., 12., 4.78571415e+00, -4.57468987e+01, -4.62565002e+01, 1.,
          151., 1.89461019e-02 ]
      - [ 38., 35., 3.81578946e+00, -9.66970978e+01, -9.61874008e+01,
          1.12903225e+00, 2.27394730e+02, 5.87889403e-02 ]
      - [ 28., 29., 4.50000000e+00, -9.27372971e+01, -9.56979980e+01,
          1.07407403e+00, 1.74892853e+02, 3.67520377e-02 ]
      - [ 18., 19., 4.33333349e+00, -5.20163002e+01, -5.24807014e+01,
          1.11764705e+00, 1.65333328e+02, 3.46647464e-02 ]
      - [ 21., 19., 5.23809528e+00, -6.33382988e+01, -6.65859985e+01,
          1.05555558e+00, 2.19857147e+02, 5.67908958e-02 ]
      - [ 52., 53., 4.65384626e+00, -1.47386002e+02, -1.51820007e+02,
          1.43243241e+00, 1.88211533e+02, 4.09245081e-02 ]
      - [ 20., 18., 4.50000000e+00, -7.18299026e+01, -7.46187973e+01,
          1.12500000e+00, 2.52399994e+02, 2.77455747e-02 ]
      - [ 44., 45., 3.88636374e+00, -1.22265999e+02, -1.22405998e+02,
          1.21621621e+00, 2.25636368e+02, 5.04817963e-02 ]
      - [ 26., 26., 3.92307687e+00, -8.01511002e+01, -8.70392990e+01,
          1.18181813e+00, 1.57346161e+02, 4.21689339e-02 ]
      - [ 44., 45., 4.20454550e+00, -1.17240997e+02, -1.22620003e+02,
          1.21621621e+00, 1.77272720e+02, 4.26642336e-02 ]
      - [ 23., 25., 4.13043499e+00, -6.96452026e+01, -6.61229019e+01,
          1.38888884e+00, 2.21173920e+02, 4.06104662e-02 ]
      - [ 23., 22., 4.39130449e+00, -6.74169998e+01, -7.21988983e+01,
          1.04761910e+00, 1.60043472e+02, 2.62320489e-02 ]
      - [ 36., 35., 4.11111116e+00, -1.12010002e+02, -1.03792999e+02,
          1.20689654e+00, 1.55916672e+02, 5.84437177e-02 ]
      - [ 36., 33., 4.38888884e+00, -8.32470016e+01, -8.12293015e+01,
          1.13793099e+00, 2.62444458e+02, 4.21977304e-02 ]
      - [ 41., 43., 4.26829290e+00, -1.19193001e+02, -1.15988998e+02,
          1.22857141e+00, 2.41365860e+02, 1.81723218e-02 ]
      - [ 22., 25., 4.36363649e+00, -6.96144028e+01, -7.00596008e+01,
          1.19047618e+00, 2.47909088e+02, 3.27850506e-02 ]
      - [ 72., 61., 3.56944442e+00, -1.56328003e+02, -1.61085999e+02,
          1.32608700e+00, 2.50805557e+02, 2.62624230e-02 ]
      - [ 14., 17., 3.57142854e+00, -4.65359001e+01, -4.73777008e+01,
          1.30769229e+00, 2.12428574e+02, 3.99765894e-02 ]
      - [ 25., 21., 4.11999989e+00, -7.93650970e+01, -7.32142029e+01,
          1.10526311e+00, 1.39759995e+02, 5.93779646e-02 ]
      - [ 9., 9., 4.77777767e+00, -3.44762001e+01, -3.45056000e+01,
          1.28571427e+00, 3.68777771e+02, 1.77861571e-01 ]
      - [ 28., 28., 4.85714293e+00, -8.11480026e+01, -7.84699020e+01,
          1.12000000e+00, 1.66035721e+02, 6.85233325e-02 ]
      - [ 13., 14., 4.30769253e+00, -5.06021996e+01, -6.33844986e+01,
          1.07692313e+00, 1.43307693e+02, 5.53267375e-02 ]
      - [ 30., 30., 4.53333330e+00, -6.98301010e+01, -8.18283997e+01,
          1.07142854e+00, 1.25833336e+02, 3.33996899e-02 ]
      - [ 15., 15., 5., -4.57443008e+01, -3.76787987e+01, 1.07142854e+00,
          2.11466660e+02, 1.40331730e-01 ]
      - [ 37., 39., 4.16216230e+00, -9.87026978e+01, -1.05903999e+02,
          1.29999995e+00, 2.12864868e+02, 6.42367080e-02 ]
      - [ 17., 16., 3.41176462e+00, -4.82254982e+01, -4.20541992e+01,
          1.14285719e+00, 2.78882355e+02, 1.66399498e-02 ]
      - [ 12., 16., 5.16666651e+00, -3.70304985e+01, -4.41306000e+01,
          1.14285719e+00, 2.23833328e+02, 3.93815264e-02 ]
      - [ 15., 15., 4.33333349e+00, -4.85391006e+01, -5.75183983e+01,
          1.07142854e+00, 1.52266663e+02, 2.65802946e-02 ]
      - [ 25., 27., 3.35999990e+00, -7.88868027e+01, -8.72382965e+01,
          1.42105258e+00, 2.77119995e+02, 6.52266368e-02 ]
      - [ 40., 41., 3.65000010e+00, -1.04703003e+02, -1.25221001e+02,
          1.41379309e+00, 2.39100006e+02, 5.93813658e-02 ]
      - [ 16., 19., 3.43750000e+00, -5.06180992e+01, -5.91348000e+01,
          1.11764705e+00, 1.41875000e+02, 7.93857723e-02 ]
      - [ 19., 17., 3.26315784e+00, -6.10545006e+01, -5.44123001e+01,
          1.06250000e+00, 2.01368423e+02, 3.77151892e-02 ]
      - [ 21., 23., 3.19047618e+00, -5.80951996e+01, -6.97363968e+01,
          1.21052635e+00, 2.07142853e+02, 6.01219498e-02 ]
      - [ 34., 34., 3.58823538e+00, -1.11747002e+02, -1.06300003e+02,
          1.36000001e+00, 2.16470581e+02, 4.63455170e-02 ]
      - [ 16., 17., 3.56250000e+00, -4.97722015e+01, -5.18091011e+01,
          1.06250000e+00, 1.93500000e+02, 5.19305542e-02 ]
      - [ 40., 42., 4.27500010e+00, -9.52834015e+01, -1.12578003e+02,
          1.55555558e+00, 2.61274994e+02, 7.04606473e-02 ]
      - [ 17., 18., 3.58823538e+00, -5.23540001e+01, -5.41123009e+01,
          1.12500000e+00, 2.36588242e+02, 2.44204160e-02 ]
      - [ 37., 39., 3.83783793e+00, -8.99703979e+01, -9.03604965e+01,
          1.25806451e+00, 2.23945953e+02, 1.17835507e-01 ]
      - [ 37., 37., 4.16216230e+00, -1.21134003e+02, -1.19328003e+02,
          1.12121212e+00, 1.62729736e+02, 1.16312698e-01 ]
      - [ 53., 56., 4.24528313e+00, -1.67070007e+02, -1.69970993e+02,
          1.30232561e+00, 2.08735855e+02, 9.47896689e-02 ]
      - [ 28., 31., 4.39285707e+00, -7.35672989e+01, -8.01859970e+01,
          1.10714281e+00, 2.11142853e+02, 6.15171827e-02 ]
      - [ 17., 18., 4.11764717e+00, -5.53936005e+01, -5.58143997e+01,
          1.12500000e+00, 1.79176468e+02, 4.86792251e-02 ]
      - [ 47., 47., 4.51063824e+00, -1.45223999e+02, -1.63084000e+02,
          1.30555558e+00, 1.74127655e+02, 7.40382895e-02 ]
      - [ 25., 30., 4.19999981e+00, -8.46005020e+01, -9.64812012e+01,
          1.20000005e+00, 1.37160004e+02, 2.18500346e-02 ]
      - [ 27., 29., 4.40740728e+00, -7.43243027e+01, -8.07494965e+01,
          1.20833337e+00, 1.62962967e+02, 1.33685008e-01 ]
      - [ 38., 40., 4.26315784e+00, -1.29279007e+02, -1.29279007e+02,
          1.21212125e+00, 1.57868423e+02, 4.79884483e-02 ]
      - [ 30., 33., 3.90000010e+00, -9.33862000e+01, -1.14264000e+02,
          1.22222221e+00, 1.48866669e+02, 3.68841626e-02 ]
      - [ 25., 27., 4.92000008e+00, -8.59804993e+01, -8.57151031e+01, 1.,
          1.23680000e+02, 5.38151264e-02 ]
      - [ 18., 20., 3.77777767e+00, -5.42481003e+01, -5.85069008e+01,
          1.17647064e+00, 2.41777771e+02, 1.90778658e-01 ]
      - [ 25., 28., 5.36000013e+00, -8.94543991e+01, -9.78463974e+01,
          1.21739125e+00, 1.52600006e+02, 2.73797587e-02 ]
      - [ 25., 24., 4.28000021e+00, -7.12561035e+01, -7.74587021e+01,
          1.09090912e+00, 1.96720001e+02, 1.22776302e-02 ]
      - [ 19., 18., 3.78947377e+00, -5.21091003e+01, -4.91473007e+01,
          1.05882359e+00, 1.69421051e+02, 1.44336158e-02 ]
      - [ 40., 40., 4.05000019e+00, -1.27132004e+02, -1.27338997e+02,
          1.37931037e+00, 1.93949997e+02, 4.44405600e-02 ]
      - [ 37., 35., 3.89189196e+00, -9.47940979e+01, -9.49431000e+01,
          1.25000000e+00, 1.98621628e+02, 1.69916227e-02 ]
      - [ 38., 37., 4.42105246e+00, -7.58693008e+01, -8.87819977e+01,
          1.37037039e+00, 2.65026306e+02, 1.67700034e-02 ]
      - [ 31., 29., 5.38709688e+00, -7.13778992e+01, -7.81574020e+01,
          1.26086962e+00, 2.41161285e+02, 1.93551145e-02 ]
      - [ 34., 33., 4.94117641e+00, -9.84609985e+01, -1.11175003e+02,
          1.10000002e+00, 2.59794128e+02, 2.90438980e-02 ]
      - [ 34., 31., 4.76470566e+00, -6.73118973e+01, -8.06769028e+01,
          1.24000001e+00, 2.74882355e+02, 1.44890398e-02 ]
      - [ 24., 24., 4.91666651e+00, -5.89061012e+01, -5.32910004e+01,
          1.14285719e+00, 2.92458344e+02, 1.17817996e-02 ]
      - [ 44., 42., 5.22727251e+00, -1.03303001e+02, -1.21848999e+02,
          1.35483873e+00, 2.64454559e+02, 1.51029369e-02 ]
      - [ 34., 34., 4.61764717e+00, -9.51600037e+01, -9.80687027e+01,
          1.25925922e+00, 2.26323532e+02, 3.76399793e-02 ]
      - [ 33., 31., 4.21212101e+00, -1.01257004e+02, -1.09514000e+02,
          1.19230771e+00, 2.10969696e+02, 4.48343232e-02 ]
      - [ 27., 27., 4., -7.51774979e+01, -8.19657974e+01, 1.28571427e+00,
          2.56074066e+02, 1.66926719e-02 ]
      - [ 2., 4., 9.50000000e+00, -1.31892996e+01, -1.65118999e+01, 1.,
          16., 1.29044438e-02 ]
      - [ 33., 33., 3.87878799e+00, -9.56156006e+01, -1.03122002e+02,
          1.37500000e+00, 2.09484848e+02, 2.07086559e-02 ]
      - [ 28., 29., 4.21428585e+00, -6.68237991e+01, -7.24449997e+01,
          1.31818187e+00, 2.67285706e+02, 1.53659331e-02 ]
      - [ 34., 36., 4.17647076e+00, -8.66178970e+01, -8.67372971e+01,
          1.24137926e+00, 2.30264709e+02, 1.22918719e-02 ]
      - [ 39., 39., 3.35897446e+00, -1.19046997e+02, -1.24839996e+02,
          1.55999994e+00, 2.70205139e+02, 1.45655563e-02 ]
      - [ 48., 53., 4.18750000e+00, -1.59753006e+02, -1.75591995e+02,
          1.26190472e+00, 1.73833328e+02, 7.41082504e-02 ]
      - [ 22., 24., 3.40909100e+00, -6.72699966e+01, -7.88293991e+01,
          1.26315784e+00, 1.83909088e+02, 2.03693938e-02 ]
      - [ 23., 26., 5.34782600e+00, -9.19169998e+01, -9.08317032e+01,
          1.18181813e+00, 1.25565216e+02, 6.08299077e-02 ]
      - [ 19., 19., 3.84210515e+00, -5.73619003e+01, -5.96436005e+01,
          1.05555558e+00, 2.20421051e+02, 7.43999407e-02 ]
      - [ 14., 14., 3.57142854e+00, -4.32882996e+01, -4.64556007e+01,
          1.27272725e+00, 3.50142853e+02, 7.99201336e-03 ]
      - [ 23., 25., 4.30434799e+00, -7.97137985e+01, -8.81039963e+01,
          1.13636363e+00, 1.75565216e+02, 5.04503138e-02 ]
      - [ 24., 26., 3.70833325e+00, -6.68862991e+01, -8.08785019e+01,
          1.18181813e+00, 1.80291672e+02, 5.20851649e-02 ]
      - [ 15., 15., 4., -4.14396019e+01, -4.73518982e+01, 1.,
          1.69066666e+02, 4.56214771e-02 ]
      - [ 28., 30., 4.17857122e+00, -8.61765976e+01, -9.66442032e+01,
          1.11111116e+00, 1.74392853e+02, 1.92374494e-02 ]
      - [ 27., 25., 4.55555534e+00, -7.67012024e+01, -6.54436035e+01,
          1.08695650e+00, 2.71296295e+02, 1.74732395e-02 ]
      - [ 26., 28., 3.96153855e+00, -8.35667038e+01, -7.77298965e+01,
          1.07692313e+00, 1.39846161e+02, 3.92475761e-02 ]
      - [ 16., 18., 4.93750000e+00, -5.35494995e+01, -6.39098015e+01, 1.,
          1.69625000e+02, 1.01731181e-01 ]
      - [ 25., 30., 4., -8.39433975e+01, -8.78955994e+01, 1.25000000e+00,
          177., 1.45742455e-02 ]
      - [ 1., 1., 10., -7.53872013e+00, -7.34373999e+00, 1., 3.,
          3.18701155e-02 ]
      - [ 18., 18., 3.44444442e+00, -6.05388985e+01, -6.59601974e+01,
          1.12500000e+00, 2.03444443e+02, 1.45250475e-02 ]
      - [ 21., 23., 3.90476179e+00, -6.21535988e+01, -6.68839035e+01,
          1.21052635e+00, 2.97952393e+02, 2.65497062e-02 ]
      - [ 33., 33., 4.54545450e+00, -1.02869003e+02, -9.69543991e+01,
          1.37500000e+00, 3.59606049e+02, 2.70332396e-02 ]
      - [ 50., 50., 4.36000013e+00, -1.61466995e+02, -1.55641006e+02,
          1.21951222e+00, 1.95160004e+02, 2.85069514e-02 ]
      - [ 30., 33., 5.80000019e+00, -9.29353027e+01, -1.03821999e+02,
          1.13793099e+00, 2.22766663e+02, 4.42113951e-02 ]
      - [ 51., 53., 5.09803915e+00, -1.53059006e+02, -1.48436996e+02,
          1.26190472e+00, 2.09784317e+02, 4.00187597e-02 ]
      - [ 23., 23., 4.43478251e+00, -7.83554993e+01, -7.87796021e+01,
          1.14999998e+00, 2.00347824e+02, 3.33749689e-02 ]
      - [ 29., 32., 4.44827604e+00, -8.70770035e+01, -8.56456985e+01,
          1.39130437e+00, 2.66172424e+02, 2.11577602e-02 ]
      - [ 29., 32., 4.75862074e+00, -7.58481979e+01, -9.23716965e+01,
          1.14285719e+00, 2.27103455e+02, 1.93862040e-02 ]
      - [ 35., 33., 4.37142849e+00, -9.23649979e+01, -9.51258011e+01,
          1.26923072e+00, 2.28714279e+02, 1.05362982e-02 ]
      - [ 58., 61., 4.43103456e+00, -1.78037003e+02, -1.71141998e+02,
          1.35555553e+00, 1.79534485e+02, 3.50480452e-02 ]
      - [ 29., 29., 4.41379309e+00, -8.04306030e+01, -7.95071030e+01,
          1.11538458e+00, 1.84482758e+02, 1.87176429e-02 ]
      - [ 37., 37., 3.78378367e+00, -1.05025002e+02, -1.10134003e+02,
          1.32142854e+00, 2.06081085e+02, 4.15375046e-02 ]
      - [ 52., 54., 4.44230747e+00, -1.23917999e+02, -1.37992996e+02,
          1.35000002e+00, 3.14346161e+02, 5.17143011e-02 ]
      - [ 34., 36., 4.26470566e+00, -1.21096001e+02, -1.14681000e+02,
          1.20000005e+00, 1.58411758e+02, 6.65201470e-02 ]
      - [ 65., 69., 4.81538439e+00, -1.68761002e+02, -1.88781998e+02,
          1.53333330e+00, 1.89492310e+02, 7.37851858e-02 ]
      - [ 22., 26., 5.09090900e+00, -6.40240021e+01, -6.52418976e+01,
          1.18181813e+00, 1.66181824e+02, 1.00045195e-02 ]
      - [ 43., 44., 4.81395340e+00, -1.26512001e+02, -1.31613007e+02,
          1.46666670e+00, 1.89162796e+02, 1.67454015e-02 ]
      - [ 43., 47., 5., -1.08977997e+02, -1.32501007e+02, 1.27027023e+00,
          1.77930237e+02, 1.98205188e-02 ]
      - [ 18., 20., 4.38888884e+00, -5.23474007e+01, -5.76500015e+01,
          1.11111116e+00, 1.77611115e+02, 6.73625767e-02 ]
      - [ 40., 42., 4.27500010e+00, -1.12308998e+02, -1.15010002e+02,
          1.20000005e+00, 2.11100006e+02, 5.09729758e-02 ]
      - [ 33., 33., 4.84848499e+00, -1.08806999e+02, -1.10113998e+02,
          1.17857146e+00, 1.33727280e+02, 5.55658080e-02 ]
      - [ 88., 91., 4.38636351e+00, -2.24423004e+02, -2.32738007e+02,
          1.49180329e+00, 1.92750000e+02, 4.52401526e-02 ]
      - [ 45., 53., 4.42222214e+00, -1.33932999e+02, -1.49141006e+02,
          1.32500005e+00, 2.11888885e+02, 1.97809171e-02 ]
      - [ 23., 25., 4.17391300e+00, -6.22985992e+01, -6.80959015e+01,
          1.08695650e+00, 2.23565216e+02, 1.46773662e-02 ]
      - [ 68., 66., 4., -1.56763000e+02, -1.66720993e+02, 1.50000000e+00,
          2.36205887e+02, 2.61214208e-02 ]
      - [ 34., 35., 4.52941179e+00, -8.74957962e+01, -8.43759003e+01,
          1.06060600e+00, 1.53823532e+02, 4.35223579e-02 ]
      - [ 79., 88., 4.48101282e+00, -2.15938004e+02, -2.51873993e+02,
          1.51724136e+00, 1.82025314e+02, 6.08148575e-02 ]
      - [ 15., 16., 3.33333325e+00, -5.53181000e+01, -5.99342003e+01,
          1.06666672e+00, 1.64666672e+02, 1.90575924e-02 ]
      - [ 32., 31., 4.37500000e+00, -8.71880035e+01, -8.18519974e+01,
          1.24000001e+00, 2.29843750e+02, 4.08471450e-02 ]
      - [ 57., 63., 3.71929836e+00, -1.68401993e+02, -1.75214996e+02,
          1.31250000e+00, 1.81912277e+02, 2.90951114e-02 ]
      - [ 33., 33., 5.03030300e+00, -1.06549004e+02, -1.06223999e+02,
          1.22222221e+00, 2.65636353e+02, 5.31283058e-02 ]
      - [ 29., 35., 4.79310322e+00, -7.36389008e+01, -9.45691986e+01,
          1.12903225e+00, 1.96689651e+02, 3.01474892e-02 ]
      - [ 24., 29., 3.91666675e+00, -8.04142990e+01, -8.88233032e+01,
          1.26086962e+00, 2.46333328e+02, 4.28159684e-02 ]
      - [ 20., 20., 3.25000000e+00, -5.91557999e+01, -5.99835014e+01,
          1.17647064e+00, 1.40500000e+02, 4.01046798e-02 ]
      - [ 25., 27., 3.07999992e+00, -8.81628036e+01, -8.73998032e+01,
          1.68750000e+00, 3.11880005e+02, 8.56055841e-02 ]
      - [ 28., 30., 3.64285707e+00, -8.11320038e+01, -9.20124969e+01,
          1.11111116e+00, 1.40107147e+02, 1.28076170e-02 ]
      - [ 52., 56., 4.55769253e+00, -1.31444000e+02, -1.44686996e+02,
          1.39999998e+00, 2.56711548e+02, 1.95183177e-02 ]
      - [ 45., 47., 4.84444427e+00, -1.31630005e+02, -1.17566002e+02,
          1.42424238e+00, 2.58622223e+02, 2.36231610e-02 ]
      - [ 19., 19., 3.15789485e+00, -4.56097984e+01, -4.55312004e+01,
          1.11764705e+00, 2.58947357e+02, 1.54299717e-02 ]
      - [ 25., 27., 5.48000002e+00, -7.00252991e+01, -8.55398026e+01,
          1.08000004e+00, 1.11320000e+02, 5.77371791e-02 ]
      - [ 57., 59., 4.49122810e+00, -1.81391006e+02, -1.77188004e+02,
          1.47500002e+00, 2.28877197e+02, 5.07011153e-02 ]
      - [ 36., 40., 4.47222233e+00, -7.71998978e+01, -9.55215988e+01,
          1.37931037e+00, 2.52388885e+02, 3.54356952e-02 ]
      - [ 83., 87., 4.15662670e+00, -2.08619003e+02, -2.44020996e+02,
          1.61111116e+00, 2.56722900e+02, 3.90079468e-02 ]
      - [ 15., 18., 3.26666665e+00, -5.49695015e+01, -6.65150986e+01,
          1.28571427e+00, 1.45133331e+02, 1.05105601e-01 ]
      - [ 32., 33., 4.96875000e+00, -1.00837997e+02, -1.02528000e+02,
          1.13793099e+00, 2.19156250e+02, 3.82090546e-02 ]
      - [ 50., 51., 4.69999981e+00, -1.39108994e+02, -1.45524994e+02,
          1.34210527e+00, 2.20740005e+02, 1.13219813e-01 ]
      - [ 17., 18., 5.17647076e+00, -3.69933014e+01, -5.01445999e+01,
          1.28571427e+00, 3.56823517e+02, 1.18728146e-01 ]
      - [ 17., 16., 4.70588255e+00, -4.31708984e+01, -4.17253990e+01,
          1.06666672e+00, 2.02235291e+02, 3.53422426e-02 ]
      - [ 52., 53., 4.73076916e+00, -1.24874001e+02, -1.40466995e+02,
          1.51428568e+00, 2.25076920e+02, 4.27209213e-02 ]
      - [ 38., 40., 5., -9.04565964e+01, -1.06268997e+02, 1.37931037e+00,
          2.88473694e+02, 3.76863182e-02 ]
      - [ 32., 32., 4.71875000e+00, -8.55660019e+01, -1.05488998e+02,
          1.10344827e+00, 2.08906250e+02, 2.71996129e-02 ]
      - [ 16., 18., 4.50000000e+00, -5.74337006e+01, -6.11598015e+01,
          1.05882359e+00, 1.96937500e+02, 1.09626707e-02 ]
      - [ 2., 2., 7., -8.56632042e+00, -5.88561010e+00, 1.,
          5.00000000e-01, 3.27102803e-02 ]
      - [ 70., 73., 4.09999990e+00, -2.24173996e+02, -2.15416000e+02,
          1.35185182e+00, 1.84242859e+02, 5.93539663e-02 ]
      - [ 23., 26., 4.52173901e+00, -6.85089035e+01, -8.45585022e+01,
          1.08333337e+00, 1.55086960e+02, 1.65183261e-01 ]
      - [ 37., 40., 4.35135126e+00, -1.20009003e+02, -1.28910995e+02,
          1.17647064e+00, 2.12702698e+02, 2.43923124e-02 ]
      - [ 16., 18., 5.56250000e+00, -6.48561020e+01, -5.67832985e+01, 1.,
          1.73500000e+02, 2.10775156e-02 ]
      - [ 22., 24., 3.50000000e+00, -6.89616013e+01, -7.50028992e+01,
          1.20000005e+00, 1.60772720e+02, 4.60807458e-02 ]
      - [ 19., 19., 3.78947377e+00, -4.61186981e+01, -4.57955017e+01,
          1.18750000e+00, 2.19526321e+02, 4.47753556e-02 ]
      - [ 17., 18., 4.47058821e+00, -5.22759018e+01, -6.16299019e+01, 1.,
          2.17529419e+02, 4.69914898e-02 ]
      - [ 18., 22., 4.72222233e+00, -4.42622986e+01, -4.73418007e+01,
          1.10000002e+00, 158., 8.53650086e-03 ]
      - [ 37., 42., 4.21621609e+00, -1.27889000e+02, -1.30472000e+02,
          1.20000005e+00, 1.35486481e+02, 4.86744754e-02 ]
      - [ 20., 22., 3.59999990e+00, -5.52097015e+01, -5.85265999e+01,
          1.15789473e+00, 270., 2.21040286e-02 ]
      - [ 41., 49., 3.85365844e+00, -1.12115997e+02, -1.32770996e+02,
          1.36111116e+00, 1.86195129e+02, 5.93755357e-02 ]
      - [ 13., 14., 3.46153855e+00, -3.63358994e+01, -3.85695992e+01,
          1.16666663e+00, 2.85230774e+02, 1.07539836e-02 ]
      - [ 20., 21., 4.75000000e+00, -5.83742981e+01, -5.49137001e+01,
          1.16666663e+00, 2.03800003e+02, 2.88566798e-02 ]
      - [ 18., 22., 4.50000000e+00, -6.99243011e+01, -7.84548035e+01,
          1.37500000e+00, 1.36666672e+02, 1.11801796e-01 ]
      - [ 19., 21., 3.63157892e+00, -6.61750031e+01, -7.51404037e+01,
          1.10526311e+00, 1.92578949e+02, 3.89755666e-02 ]
      - [ 17., 20., 5.05882359e+00, -5.23889008e+01, -4.47038994e+01,
          1.05263162e+00, 1.10529411e+02, 1.84529468e-01 ]
      - [ 39., 38., 3.56410265e+00, -1.31016006e+02, -1.22850998e+02,
          1.22580647e+00, 2.18641022e+02, 7.15182051e-02 ]
      - [ 36., 38., 3.27777767e+00, -1.49167999e+02, -1.44942001e+02,
          1.22580647e+00, 1.40833328e+02, 7.81455263e-02 ]
      - [ 29., 29., 3.48275852e+00, -9.53664017e+01, -1.12266998e+02,
          1.45000005e+00, 1.95413788e+02, 5.67237027e-02 ]
      - [ 19., 23., 5.36842108e+00, -5.92414017e+01, -5.92593002e+01,
          1.21052635e+00, 1.91473679e+02, 5.76514378e-02 ]
      - [ 47., 42., 4.65957451e+00, -1.51156998e+02, -1.49259003e+02,
          1.13513517e+00, 1.83234039e+02, 4.92965616e-02 ]
      - [ 17., 22., 3.94117641e+00, -6.50643005e+01, -6.59591980e+01,
          1.10000002e+00, 1.84176468e+02, 7.78782815e-02 ]
      - [ 13., 14., 3.92307687e+00, -6.32043991e+01, -5.99804993e+01,
          1.07692313e+00, 1.53769226e+02, 4.35285047e-02 ]
      - [ 27., 27., 4.37037039e+00, -8.32161026e+01, -9.52876968e+01,
          1.28571427e+00, 2.38259262e+02, 1.71893254e-01 ]
      - [ 33., 36., 4.12121201e+00, -9.22093964e+01, -9.93949966e+01,
          1.56521738e+00, 2.38757568e+02, 3.72303873e-02 ]
      - [ 23., 23., 4.21739149e+00, -7.20154037e+01, -7.12117004e+01,
